817 100
<s> 1.539 -0.985 -0.698 0.930 0.372 -0.094 -0.749 0.039 -0.630 -1.615 0.165 0.036 0.013 0.144 0.278 1.341 -0.093 -1.173 -0.421 0.270 0.764 1.354 -1.561 1.805 0.357 -1.188 -1.685 0.355 0.271 -0.862 -0.041 -0.704 -1.961 0.588 0.519 -0.103 0.966 -0.944 -1.388 1.253 -0.376 -1.621 1.376 1.376 1.451 0.502 -1.213 -0.467 1.686 -0.719 0.947 -0.444 -0.348 -0.280 1.119 -0.695 -0.601 -0.410 0.658 -0.623 -0.461 1.039 1.594 -0.177 0.418 0.048 -0.086 -1.033 0.071 0.560 -0.792 -1.061 -1.041 0.003 0.020 -1.094 0.325 -0.676 0.952 1.159 0.295 0.801 1.895 -1.561 -0.391 -0.763 1.571 -2.040 -0.316 0.434 -0.222 -1.531 0.303 -0.339 0.212 -0.046 0.580 0.788 0.911 0.248
le 0.477 0.190 0.501 0.788 1.145 -0.043 -1.948 -0.534 0.178 -0.963 -0.736 0.313 -0.160 0.183 0.434 -0.843 -0.999 0.077 0.820 -2.032 -0.428 -2.386 2.012 -1.360 -0.146 0.237 0.421 -0.940 0.296 0.064 -1.701 1.556 -0.166 0.577 1.699 -0.482 -0.447 0.555 1.197 -1.031 -1.992 -0.833 -0.070 -0.660 -0.786 -0.935 0.055 -1.633 -1.199 -0.412 0.949 -0.082 -0.438 0.895 0.777 0.762 -0.104 -1.646 1.703 0.002 -1.274 -0.789 -0.333 0.504 -1.672 -0.006 -0.148 0.864 0.253 -1.064 0.553 0.989 0.541 -1.827 -0.918 -0.650 1.142 0.530 2.246 1.697 0.138 -0.249 -1.077 0.907 0.990 -1.379 -0.365 0.406 -2.297 -2.169 -0.981 0.087 -0.899 0.784 0.964 -0.792 1.578 -1.621 0.630 1.124
24 0.890 -0.199 -0.191 0.834 -0.195 -0.114 -0.609 0.884 -1.068 -0.694 0.144 0.050 0.648 0.742 -0.667 1.595 -0.859 0.947 -1.028 -0.491 0.444 -0.618 -1.155 -0.560 1.318 0.296 0.371 -0.274 1.148 -0.233 0.741 -0.127 1.796 0.514 -0.798 -0.493 0.443 0.884 0.282 0.167 -0.730 -0.018 -0.866 0.357 0.840 -1.968 -0.849 -0.659 -0.941 1.006 0.787 1.205 0.870 -0.663 1.480 -0.338 -0.215 -1.001 2.022 0.761 -0.040 2.978 -1.856 0.158 -0.072 0.789 -0.876 -0.346 0.193 0.179 -1.123 0.127 0.517 -1.708 0.912 1.280 -0.950 0.729 0.101 -0.802 -1.472 -0.685 0.024 -1.097 0.449 0.077 -1.398 0.600 0.553 -1.589 0.427 0.578 0.122 0.778 -0.705 -1.024 -1.676 -1.217 0.815 0.790
février 1.016 1.026 0.362 -0.493 0.342 -1.488 1.037 0.171 -0.682 -0.151 1.129 -1.363 -1.827 0.602 -0.801 -0.483 0.225 0.075 -0.364 1.610 1.017 -2.376 0.522 0.655 -0.126 -2.599 1.075 -1.266 0.402 -0.495 -0.018 -0.597 -0.818 1.411 -0.359 0.534 -1.373 -0.989 -0.187 0.069 0.280 0.370 -1.528 -1.023 0.626 1.229 -1.267 1.789 -0.083 0.930 -0.124 -0.442 0.906 -1.327 -0.827 0.833 -0.818 1.066 -1.290 0.021 -0.161 -0.664 -0.876 1.026 -1.320 0.658 -0.208 -1.703 0.494 -0.381 -1.041 0.314 -1.084 -1.377 0.228 -1.216 -0.130 -1.694 -0.046 -0.273 -0.227 -1.188 0.091 -0.276 -0.079 0.574 -2.291 -1.022 -0.544 -0.345 -2.132 -0.532 -1.223 -0.281 -0.835 -0.362 1.201 -0.069 -0.047 0.653
1815 -1.604 -0.229 0.210 0.573 0.791 -0.056 -0.457 0.498 1.233 1.219 0.274 0.626 0.927 -0.804 0.406 -1.878 0.758 0.988 -1.825 -0.852 -0.444 -1.629 0.848 0.815 1.129 -0.333 0.662 0.343 0.538 -0.318 0.591 0.424 0.942 0.221 -0.211 0.658 -1.372 0.258 1.185 -0.911 0.618 -0.250 -1.124 1.356 -1.279 -1.980 0.610 -0.693 1.515 -0.576 -0.088 0.988 0.699 -0.243 0.381 1.668 -0.639 0.612 -1.005 0.689 -0.614 0.394 -0.140 1.303 -1.623 0.395 -2.303 0.161 -0.437 0.044 -0.783 -0.002 0.947 -0.708 -0.323 -0.146 0.569 -1.234 0.654 -0.931 -0.058 0.520 -0.976 -0.399 1.221 0.965 0.913 -0.284 -0.374 0.065 -0.415 -1.402 -0.845 1.802 2.220 0.939 -0.038 0.467 1.275 -0.788
, -2.383 -0.357 0.493 1.452 0.671 0.554 -0.623 -1.195 -0.071 0.138 0.524 -1.225 0.432 1.078 -0.274 0.975 1.631 -0.712 1.792 -0.490 -0.529 0.373 0.998 -1.204 2.161 -2.324 0.705 -1.964 -0.919 -2.011 0.268 0.134 -1.115 0.485 -0.287 -0.614 -0.453 0.436 0.481 0.043 1.471 -0.805 -1.394 0.319 0.026 -0.610 -0.674 -0.388 -0.387 0.139 -1.423 0.699 1.078 0.028 -0.753 -1.117 0.172 -1.118 0.196 0.591 -0.682 0.109 1.004 -0.578 -0.252 -0.139 -0.283 -1.103 0.225 0.198 -1.297 -0.395 -0.234 -0.452 0.749 -0.614 0.154 0.588 -0.181 -0.644 -0.176 -1.717 -0.965 -1.635 -0.476 -0.123 -0.845 -1.365 0.599 -2.412 -0.354 -1.490 0.173 0.708 -0.660 1.758 1.496 2.558 -0.592 2.001
la 1.126 -1.150 0.645 0.847 0.321 0.607 -1.560 1.025 -1.489 -0.388 0.354 0.433 0.055 -0.169 0.246 1.730 -0.115 1.384 -0.770 -0.760 0.172 1.117 -0.974 0.201 0.022 -0.508 0.010 -1.398 2.246 -1.185 -0.861 -0.702 -0.896 -0.925 -0.859 -0.568 0.165 1.011 0.405 0.221 -0.699 -1.423 -0.305 -1.182 -0.343 1.569 -1.993 -1.104 0.247 -0.394 -0.196 0.426 -1.253 -0.612 0.433 0.095 1.839 -1.171 -1.345 -1.897 -1.262 -0.184 0.897 -0.827 -1.395 -0.313 1.581 0.878 0.806 -0.140 -0.117 0.347 0.455 0.075 0.118 -0.790 1.213 0.509 1.608 -0.552 0.864 0.404 -0.001 -0.767 -0.246 -1.141 -0.033 -0.514 1.962 -0.828 -0.673 -0.395 -0.359 -0.918 0.114 0.105 0.018 -1.495 -0.230 0.160
vigie -0.273 -0.047 -1.058 2.710 2.054 0.075 0.942 1.637 1.091 -0.743 -0.981 0.490 -0.529 -0.475 -0.869 0.026 -0.148 -0.353 1.750 -0.813 -0.911 -0.237 -0.196 -0.835 0.772 -2.389 0.254 -0.833 0.353 1.601 1.150 0.636 -0.542 0.548 1.461 0.383 1.355 -0.461 -0.480 0.087 -0.367 0.288 -0.043 -0.028 0.096 -1.058 0.967 -0.995 -0.652 0.036 0.949 0.218 -0.426 -0.562 1.545 1.966 -0.686 0.628 -2.783 -1.314 -0.389 -1.657 -0.263 0.510 1.292 0.752 0.232 -0.003 -0.496 0.489 0.782 -0.223 -2.574 1.212 -0.053 0.987 0.515 0.035 1.051 1.099 0.920 0.947 -1.125 -3.187 -1.748 1.431 0.437 -0.470 -0.436 0.580 -1.333 1.049 -2.675 -0.555 -0.340 2.471 -0.602 1.120 -0.350 -1.050
de -1.313 1.148 -0.142 -0.879 0.231 0.935 0.385 0.827 -1.322 2.641 0.555 1.296 -0.527 -0.457 -0.841 0.878 -1.329 -0.689 -0.177 -0.087 2.345 -0.460 0.693 0.965 0.252 -1.134 -2.601 -1.258 2.364 -1.577 -1.461 -0.024 -0.152 -0.421 -0.116 0.043 1.224 0.664 0.283 0.684 -0.674 -0.807 0.156 0.882 1.144 -0.958 -1.220 -0.120 -0.403 0.276 -1.123 2.466 1.281 -0.887 -1.128 0.818 0.799 -0.448 0.009 -0.727 1.289 -0.280 -0.748 0.449 0.503 -0.703 0.311 -0.097 -0.042 -1.192 -0.989 -0.576 1.266 0.052 1.570 -0.983 1.991 -0.294 -0.309 0.285 0.146 -0.794 0.991 -0.185 -0.269 1.054 -0.141 0.649 0.347 0.362 -1.293 -1.339 0.009 -0.914 0.787 0.199 1.193 -1.002 -0.364 0.289
notre -1.109 -2.605 -0.445 -0.075 0.284 0.765 -0.712 0.120 -1.187 0.291 -2.038 0.303 2.106 -0.992 -0.198 0.890 -1.516 -0.281 -0.608 -0.284 1.242 1.130 0.211 -1.047 2.506 -0.068 -0.086 0.686 1.862 -1.389 1.114 0.219 1.341 0.248 -0.826 -1.540 1.772 1.467 -0.867 -0.565 -0.522 -0.825 -0.398 -0.147 -0.905 1.517 0.275 -0.217 -1.840 0.868 0.496 -0.160 1.244 -0.071 -1.096 -0.536 0.323 0.442 0.232 -1.702 -0.934 1.229 0.672 0.276 -0.947 -0.353 0.054 -0.530 0.532 1.542 1.868 0.296 0.148 -0.506 -0.537 1.995 -0.839 -0.091 -0.784 -0.680 -1.695 0.399 0.966 -0.715 -2.033 0.153 -0.987 0.291 -0.145 -1.096 -1.372 0.563 0.279 -1.605 0.066 0.378 0.466 -1.615 -0.098 -0.453
- -1.784 -0.811 -0.814 1.064 1.700 1.765 0.626 0.065 0.130 -0.963 -1.732 0.072 -1.015 0.519 -0.598 1.107 0.627 0.291 -1.064 0.498 -0.128 -0.601 -0.448 1.197 1.089 -0.681 -0.295 -0.806 0.772 0.101 -0.463 0.482 0.839 -0.175 0.568 0.742 0.488 0.619 1.638 -1.193 0.005 0.846 -0.890 -1.049 0.406 0.131 -1.193 1.666 -1.216 -1.457 -0.407 0.678 -0.356 0.265 0.141 -1.251 -0.961 0.446 -0.824 0.393 -0.611 2.846 -1.544 0.523 1.387 -0.848 0.970 0.051 -0.648 1.007 -0.935 0.815 0.467 1.058 -0.012 -0.685 0.169 -1.526 1.146 0.051 -0.492 1.449 -0.587 -1.343 -1.064 -0.263 1.352 0.919 -1.298 0.204 -0.889 0.167 -1.397 -0.523 1.361 -0.239 1.462 -0.102 0.088 0.500
dame -2.085 1.056 -0.678 -0.359 -0.448 1.354 0.323 0.765 1.472 -1.945 -0.460 -0.563 -0.803 0.339 0.256 0.002 0.815 -0.602 -0.442 0.229 0.707 0.421 0.968 -1.375 0.725 -0.667 0.250 1.648 0.268 -0.837 0.258 -0.219 -0.536 0.962 -0.450 -0.944 -1.121 -1.228 0.963 -0.827 -0.505 0.468 0.745 0.892 -0.503 -1.582 -1.487 0.282 0.307 0.783 -1.409 -0.153 -0.705 -1.237 -0.778 1.356 -0.531 -0.454 -0.338 0.830 1.355 1.541 0.523 -1.603 -1.104 0.905 -0.666 -0.249 -1.121 0.949 -0.174 -1.463 -0.167 0.696 1.522 0.965 0.035 -0.968 -0.161 -0.196 -0.368 -0.743 0.493 0.813 -1.603 0.720 0.299 1.017 0.608 0.075 1.581 1.168 0.394 -0.590 1.620 -0.709 0.503 0.885 1.131 -0.116
garde -0.048 0.456 -0.225 -2.081 0.318 0.540 -0.526 -1.871 -0.870 0.096 0.233 -1.825 -1.085 -0.341 1.285 1.661 -0.949 -0.606 -1.194 -0.791 0.287 -0.181 0.767 -0.822 1.478 -0.840 0.267 0.473 -0.470 -0.684 1.655 1.042 0.133 0.314 0.812 1.367 1.266 0.401 -1.051 1.204 -0.130 -0.328 -0.525 -0.085 1.169 0.083 -0.986 -0.013 -0.183 -0.518 0.641 -0.363 -0.827 0.610 -1.143 -0.674 1.155 -2.164 1.175 -0.262 1.378 1.289 0.434 1.727 0.145 0.231 -1.454 -1.111 2.374 0.280 -0.258 -0.093 -0.901 -1.482 0.270 0.156 -1.571 -0.147 -0.261 1.601 0.186 -0.086 0.715 -2.729 -0.467 -1.834 -0.803 0.285 -0.800 -1.010 -0.930 -0.093 -0.373 -0.408 -0.724 0.735 1.956 -0.884 -0.210 1.605
signala 0.163 -1.074 0.901 -1.961 0.358 -0.059 0.791 -0.217 0.641 -1.136 -0.919 -0.833 -1.301 1.268 -0.302 0.854 0.582 -1.013 0.662 -1.043 -0.773 1.327 0.565 -0.135 -0.456 1.264 0.386 0.162 0.166 0.762 -0.153 -1.098 -0.201 1.655 0.259 -0.090 -0.059 -1.661 -0.005 -1.972 -0.849 0.297 0.375 0.017 -0.247 -0.408 -0.869 -0.458 2.086 -0.779 -1.079 -0.373 2.163 -0.428 0.361 1.000 -0.434 1.172 -1.424 0.854 0.508 0.774 0.512 1.272 0.282 -0.584 0.339 -2.080 -0.852 -1.479 0.041 1.091 -0.208 0.261 0.484 -1.478 0.002 0.293 -0.319 -0.823 -2.078 -0.349 -0.561 -0.514 0.886 0.684 -1.064 0.461 0.981 -1.383 -0.212 -1.212 0.321 1.623 2.200 0.072 1.059 0.056 1.012 0.795
trois 0.125 0.372 0.692 2.014 2.208 -0.103 -0.583 -0.585 0.724 -1.566 -1.385 -0.836 -2.312 0.924 -1.393 -0.178 1.264 1.029 -1.606 -0.386 0.680 -1.119 0.135 0.520 0.972 -0.582 -0.175 -0.507 -0.900 0.213 -0.332 -3.267 0.809 0.411 0.790 -0.003 0.729 -0.452 2.240 0.669 -0.958 -0.238 -0.581 0.710 -0.515 0.909 -0.417 0.296 0.036 -0.695 -0.538 -0.474 0.498 -1.111 -0.313 -0.868 0.055 0.176 -0.083 -0.584 -2.787 1.217 0.045 -0.278 0.810 -0.264 0.223 -0.682 -1.217 -0.743 -0.287 0.737 2.409 -0.926 -0.872 -1.687 1.923 -0.130 1.456 1.154 0.176 0.143 0.837 -0.325 -0.620 0.711 0.902 1.746 0.658 -0.484 -0.043 -0.952 0.510 -0.686 -0.237 -1.101 -1.292 2.826 -0.373 0.585
mâts -1.185 0.204 -1.178 -1.222 -1.158 -0.446 -0.405 -0.143 -0.206 0.212 -0.837 0.345 -0.550 -0.194 0.353 0.260 0.231 -1.237 0.516 -0.278 -0.059 -1.092 -0.141 -0.954 0.742 -2.063 -1.334 0.896 1.182 1.382 -0.285 -0.305 -1.233 0.083 -1.568 0.928 -0.085 0.559 1.460 -0.648 -0.222 1.188 -0.627 1.490 -1.383 -1.831 0.083 -0.686 -0.311 0.006 -0.363 0.764 0.928 2.108 0.466 1.156 1.344 -1.296 1.885 -0.811 -0.278 0.541 1.268 0.092 -0.790 1.251 1.473 0.419 1.024 1.532 -1.137 1.187 -0.113 -0.408 -0.035 -0.065 0.206 0.613 1.208 0.750 -1.796 0.954 -1.322 0.032 -3.077 0.672 1.939 -0.976 -0.164 -0.054 0.260 0.249 1.087 2.845 -0.551 -0.416 -0.453 2.072 0.774 -0.545
pharaon -1.066 1.693 -0.517 0.270 -0.244 1.380 -2.698 -0.254 0.370 -0.098 -2.124 2.552 -0.136 -1.075 -0.237 0.339 0.309 -0.144 1.327 0.751 -0.016 0.858 1.830 0.044 -0.073 0.732 0.380 0.011 0.006 -0.127 -1.167 -0.645 -0.561 0.529 0.120 0.525 -0.547 -0.147 1.103 0.116 0.448 -1.533 0.275 1.011 0.464 -1.266 -2.021 1.020 0.124 -0.957 -1.732 0.127 -1.157 0.995 0.804 -1.923 -0.007 1.449 1.937 1.035 -1.457 -0.216 -1.369 0.128 -0.576 -0.315 -0.225 1.088 -1.630 0.429 -0.669 -2.750 1.568 -0.032 -1.236 -1.056 -0.155 0.201 -0.892 1.436 0.290 0.515 -1.068 -0.030 -0.803 1.128 -0.690 2.383 0.614 0.553 0.008 0.427 -0.639 1.368 -0.235 1.809 0.142 -0.460 0.336 1.489
venant -0.765 0.057 -0.886 -0.229 1.018 0.220 -0.441 0.458 -0.647 -0.740 0.319 0.609 -0.803 0.372 -0.610 2.527 -2.135 -0.532 0.340 -0.027 0.819 0.042 -0.718 0.853 -0.466 -0.779 1.115 -0.602 -0.926 -0.957 0.997 0.194 0.276 -0.837 -0.224 0.440 -1.071 -1.256 -0.035 -1.318 -0.910 0.006 -1.144 0.251 0.431 -0.169 -0.328 -0.145 0.033 -2.465 -1.087 0.320 -0.184 -0.629 0.571 0.375 0.867 0.183 -0.933 -1.374 0.349 1.980 -0.077 -0.907 -0.645 -0.901 1.034 -0.921 -1.224 1.307 -1.264 0.384 -0.598 -1.554 -0.969 -2.660 -1.632 0.427 1.594 0.652 1.041 -0.810 -0.759 1.055 0.207 1.540 -1.248 1.680 -0.537 0.023 -1.222 0.536 -0.761 1.185 0.043 1.830 -0.521 0.835 -0.782 -2.013
smyrne -0.559 -0.213 -0.958 -0.637 0.420 -0.064 -0.311 -0.132 2.136 0.494 0.795 -0.043 -0.350 -0.390 0.458 0.180 -0.087 -1.408 0.650 0.478 0.822 0.330 -1.565 0.079 -0.577 -1.346 0.782 -0.477 1.372 0.649 -0.047 -1.045 -1.471 0.900 -0.160 -0.588 0.500 -0.916 0.999 0.723 -0.121 -0.392 -0.994 0.470 -0.151 0.588 -1.304 -1.220 0.272 2.690 -0.584 -0.882 -1.200 0.774 2.143 -0.923 1.066 -1.074 0.323 1.409 -0.602 0.255 -0.603 1.110 0.868 0.443 1.324 -0.972 0.895 -0.892 -0.803 -0.718 -0.164 -0.465 -0.442 -0.564 -0.153 -0.928 2.117 0.891 0.818 -0.346 -0.102 -0.815 -0.112 1.114 -0.231 -0.075 -1.855 -0.256 -0.492 -0.141 -0.267 0.729 -0.614 -0.696 0.577 -0.696 -0.483 0.602
trieste 0.199 -0.673 -0.836 0.257 1.849 -0.891 0.692 0.816 -0.022 -0.280 0.106 0.477 -0.588 -0.100 -0.074 0.062 0.146 -1.163 -1.323 -1.113 0.632 -0.355 -0.069 1.514 0.157 -0.954 0.564 0.058 -0.220 -0.995 0.204 1.310 0.183 0.249 0.410 -0.308 1.031 -1.351 0.600 1.459 -0.602 -0.910 -0.343 -1.503 -0.302 -1.054 1.276 -0.226 -0.534 -1.211 -0.624 -0.687 0.448 2.039 -0.635 0.641 1.351 -0.901 -0.182 -0.773 -0.117 2.768 -0.746 -0.404 0.515 0.392 -0.137 0.418 0.341 0.880 -1.220 0.392 -0.971 0.018 0.372 -0.513 -0.572 2.202 -0.781 -0.185 0.300 -1.239 0.882 -0.677 0.030 -1.476 -1.922 -0.739 -1.309 1.327 -1.779 -0.490 -0.795 0.833 0.236 0.837 -1.373 -0.154 -1.405 0.593
et -0.656 -1.699 -0.403 -0.377 0.343 0.134 -0.446 1.070 -1.265 -0.251 0.503 -0.312 0.808 -0.689 -0.417 0.309 -1.173 0.742 0.699 1.332 -0.269 0.368 -1.702 1.457 1.124 -0.559 0.906 1.404 0.467 -1.619 -0.802 -0.888 -0.533 -1.312 -0.800 -0.799 0.981 0.725 -0.234 0.084 1.540 0.372 0.210 -0.137 1.109 0.011 0.454 3.448 1.081 -1.234 -0.609 0.732 1.897 -1.833 -0.841 -0.613 0.074 -1.341 -0.628 -0.289 -0.394 -0.640 0.989 0.186 1.945 1.256 0.393 0.115 -0.539 1.092 -0.054 -1.148 0.483 0.749 0.472 0.934 0.133 -0.813 0.448 -0.333 -0.183 -0.037 -1.026 -0.057 -0.136 0.612 -1.561 -0.136 -0.403 -1.057 0.049 -0.607 0.288 -1.423 -1.351 1.907 -1.572 0.067 -2.675 0.127
naples 0.691 -1.633 0.053 -0.191 1.218 0.128 -2.185 0.468 -0.368 1.171 0.209 -1.555 -1.841 -1.036 -1.240 -0.113 -0.303 -1.050 -0.898 -1.129 -0.391 0.196 -0.064 1.332 1.226 1.070 0.258 0.211 1.737 -1.942 -0.263 1.385 0.151 1.553 -0.171 1.996 -1.697 0.141 -1.640 -1.764 0.858 -0.033 -2.459 0.336 1.715 -0.244 -0.852 0.751 -1.754 0.806 -1.679 0.933 -0.946 0.083 -0.278 -1.668 1.257 -1.098 -0.124 0.093 0.975 -0.646 1.947 -0.673 -0.125 -0.030 1.253 0.613 0.173 -0.754 0.688 0.601 -0.131 -1.436 0.003 -0.604 -1.633 0.514 -0.117 -0.347 -0.661 2.522 0.381 -0.480 0.443 -0.155 -0.415 -0.162 1.765 -0.117 0.136 0.977 -1.604 -1.000 -0.928 0.585 -0.363 0.803 0.229 0.681
. 0.023 0.448 -0.115 0.461 2.184 -1.136 0.369 0.660 -0.695 -0.565 -0.742 -1.548 0.717 -0.187 1.077 0.328 -0.624 -1.053 -0.010 -0.393 -0.840 0.220 -1.031 0.114 -1.168 -0.271 1.067 -0.181 1.067 -1.262 -0.679 3.159 -1.955 0.409 -0.005 0.017 0.726 -0.943 1.501 -0.317 0.149 -1.615 0.314 0.641 -0.601 -0.836 0.467 -1.253 0.294 0.727 -0.049 0.376 -0.071 -0.182 -0.157 -0.686 1.904 1.050 1.244 -0.861 -0.123 0.470 0.009 -1.033 0.865 -0.846 -0.113 0.658 -1.472 0.232 -0.309 0.614 1.190 0.004 0.744 1.049 0.650 -0.651 -0.610 1.300 -0.510 1.212 -0.222 -0.747 -0.354 1.774 1.040 -0.221 -0.225 -0.683 -0.282 -0.537 -1.206 0.141 -0.241 -0.090 -1.327 0.353 1.004 0.281
</s> -0.080 0.479 -0.121 -1.146 -1.025 0.997 -0.308 -0.344 -2.521 -0.648 -0.923 0.793 1.129 -0.001 -0.131 1.502 0.546 -1.392 -1.379 0.896 -0.081 1.717 0.362 -0.476 -0.639 -0.474 0.230 0.820 -0.495 -0.458 -0.882 0.901 -0.105 -1.739 -1.149 -1.064 0.510 -1.142 -0.187 1.128 -0.413 1.103 -0.068 -0.149 0.156 -1.084 0.049 1.293 0.956 -0.054 -0.515 -0.425 0.414 0.875 -2.139 0.245 0.249 -0.133 -1.399 0.836 -0.440 -0.291 -0.034 0.313 -0.398 0.516 -0.036 1.155 -0.223 1.502 -0.994 -0.313 -0.562 0.623 1.321 -0.391 -0.124 -0.365 1.491 0.039 -0.391 -0.864 -0.234 -1.515 -1.854 -0.067 -1.348 -1.001 -0.652 0.170 0.479 0.179 0.431 -0.134 -0.255 1.154 1.020 -0.346 0.892 1.600
<s> -0.099 0.779 -0.766 0.021 1.625 2.651 -0.630 0.679 -0.282 -0.432 0.514 -1.662 -0.677 0.221 -0.757 0.433 0.945 0.914 0.519 -0.967 1.889 0.319 0.651 -0.308 0.325 1.305 -0.321 -1.538 -0.264 0.664 0.608 0.606 -0.780 -0.481 0.498 0.568 0.099 0.796 -1.558 0.076 -0.333 -1.369 -1.592 0.394 -0.379 -0.011 -0.162 0.839 -1.343 1.640 -0.202 1.013 0.578 1.192 0.506 0.509 -0.083 -1.111 0.586 0.704 0.069 0.212 0.730 0.619 0.040 0.858 -1.258 -0.154 1.884 -0.069 -1.338 0.124 0.156 0.276 0.268 0.733 2.019 0.409 1.105 1.158 -0.428 -0.091 1.396 -0.699 -0.755 1.993 0.708 0.598 0.993 2.363 -0.447 0.558 1.170 0.892 -0.154 0.229 0.834 0.331 0.710 -0.602
comme 1.737 -3.095 0.230 0.950 0.112 -1.678 -0.502 -0.685 -1.596 -0.905 0.341 -0.744 2.000 -0.758 -0.911 1.786 1.107 0.510 1.047 1.128 0.270 1.133 -0.880 -0.142 -1.305 0.195 0.213 -2.155 1.015 -1.366 0.254 -0.335 0.956 0.032 0.500 -0.656 0.613 -1.260 0.593 0.126 0.518 -1.160 1.222 -0.644 0.712 -0.619 0.011 -0.134 -2.171 0.370 -0.458 -0.736 0.935 0.376 -0.104 -0.606 1.813 -1.488 -0.348 0.123 -0.537 1.658 -0.394 -1.160 -0.077 0.062 0.938 1.524 -0.499 -0.133 -2.925 0.043 2.607 -0.691 -0.060 -0.995 1.578 -1.267 2.308 0.676 -2.280 0.054 0.284 1.399 -0.343 -0.187 1.052 0.923 0.044 0.044 0.510 0.465 0.218 -0.045 -1.042 0.506 0.898 -1.034 0.178 -1.154
d’ -0.599 1.153 -0.570 2.343 0.365 -0.840 -0.581 1.147 -0.692 -0.417 1.332 -1.743 0.593 -0.336 -0.196 -0.706 -1.158 -0.095 1.625 -0.964 1.363 -0.539 -1.428 1.274 1.129 -0.890 0.222 -2.086 0.695 -0.437 1.866 0.763 -0.329 -0.961 -0.621 -0.152 -0.160 -0.481 -0.711 0.945 0.992 -0.039 0.256 -0.554 0.500 0.919 -0.816 2.095 0.393 0.191 0.025 0.591 0.749 -0.246 0.503 -0.808 -0.756 0.628 -1.409 0.662 1.830 0.746 1.107 0.858 0.103 1.683 1.404 -0.115 1.034 0.159 -1.665 0.955 0.394 0.630 0.957 -1.864 0.374 1.461 -0.436 0.067 -1.724 -0.322 -0.272 -0.781 1.517 1.091 0.226 -1.892 -0.969 0.698 0.154 0.327 -0.516 0.730 0.335 -0.978 0.145 -1.799 0.625 -2.903
habitude 0.497 0.277 -0.925 -0.602 1.374 1.374 -0.812 -0.776 0.427 0.790 -0.787 -1.359 -0.695 0.957 0.524 -0.806 -0.248 -0.716 -0.431 0.614 -1.363 0.036 0.159 0.375 -1.152 -1.452 -0.903 -0.284 0.602 0.660 0.616 -0.672 -0.420 0.560 0.968 -0.352 -0.516 -0.102 -0.612 0.324 0.464 0.165 0.398 -0.026 -0.052 0.797 -1.184 1.157 1.115 1.395 -3.249 -0.553 -1.285 0.090 -0.818 0.749 -0.414 -1.007 0.373 -0.065 0.006 -0.218 0.678 -0.575 -0.476 1.185 -0.770 0.194 0.136 0.319 -1.032 -1.373 0.293 -1.172 -1.840 0.067 0.593 -1.763 -0.413 1.176 -0.462 1.294 -1.526 -0.029 0.790 -0.552 0.730 1.112 0.296 -1.343 -0.035 -0.442 -2.650 0.758 -1.570 -0.412 -0.286 -0.809 0.809 0.428
un -0.758 -1.371 0.288 -0.541 2.158 0.284 0.502 -0.224 0.817 -0.105 0.249 0.877 -1.276 0.555 -0.518 0.259 1.176 0.571 -0.252 -0.712 -0.886 -0.851 -0.343 -0.149 -2.273 -0.460 -0.442 -0.751 -1.459 0.424 1.095 0.202 0.393 -0.986 -0.188 1.129 -0.742 2.113 0.670 -0.910 -1.088 1.461 -0.959 1.481 -1.729 -0.578 -1.177 -0.657 -0.655 0.074 -0.124 -1.655 0.831 0.887 -0.265 0.551 1.200 -2.159 0.217 0.100 -0.136 0.350 -0.110 3.149 -1.289 -0.784 -0.929 -0.821 -0.700 -1.752 -0.321 0.479 -0.998 1.083 0.291 -1.934 -1.520 0.367 0.321 0.225 -0.121 -0.911 1.056 -1.884 -0.496 0.484 0.531 0.362 -0.562 0.022 0.251 0.121 2.451 0.487 -2.115 -1.442 -1.031 0.773 0.462 0.116
pilote 0.426 0.282 -0.635 -0.195 1.348 -0.291 -1.192 -0.395 0.618 1.500 0.601 -2.196 0.615 -0.393 -0.479 0.064 0.797 -0.085 -1.661 1.605 -0.997 1.095 -0.194 -1.513 -1.006 0.276 0.568 -0.086 1.262 -0.727 -0.232 -0.385 -1.019 0.788 0.681 0.950 -0.514 0.093 1.374 -0.594 0.602 0.395 -1.144 -0.849 -1.007 -2.075 -1.489 2.689 0.061 0.677 0.769 -0.611 0.661 0.915 -0.547 -1.221 -0.660 -0.124 0.026 0.160 0.212 0.860 1.122 1.125 -1.515 0.086 -0.401 0.351 -0.609 0.702 1.036 1.127 -0.715 2.572 -0.352 1.416 -0.886 1.437 1.365 -1.044 -0.563 0.415 -0.434 0.619 -0.955 1.222 0.487 -2.539 -0.758 -0.767 0.246 0.651 0.034 0.018 0.272 -0.621 -0.742 0.169 0.540 0.546
côtier 0.276 0.624 -0.391 -1.408 -0.714 0.589 -0.577 0.353 -1.319 -2.518 0.964 -1.723 -0.790 -0.585 -0.698 0.203 0.626 -1.730 -1.543 1.020 -1.475 -1.894 1.603 0.523 1.668 -0.240 0.778 0.225 1.763 0.600 -1.054 0.471 -0.938 0.833 -0.601 -0.690 -1.562 0.049 2.074 -0.774 0.335 0.203 0.036 -0.159 -0.001 0.877 -1.337 -0.852 3.388 0.222 -0.514 -0.572 -0.741 -0.597 -0.133 -0.727 -1.094 -1.453 -0.205 1.698 1.309 0.485 -0.415 0.352 1.318 0.802 1.107 -0.679 0.496 1.498 -1.621 -0.702 -0.740 2.038 0.631 0.131 0.284 -0.998 -1.126 -0.423 -0.299 0.606 1.205 -0.899 0.412 1.523 -0.838 0.718 1.507 0.558 -1.884 -0.686 -0.786 -0.138 1.271 0.316 0.406 -0.345 -1.656 -0.183
partit -0.298 -0.761 -0.505 -0.996 1.081 -1.525 -0.108 2.680 0.977 -0.856 -1.321 -0.337 0.053 -0.323 0.192 -0.802 0.852 -0.974 -0.587 -0.112 0.642 0.750 -0.743 0.247 1.464 -0.567 0.533 0.372 -0.885 -0.948 0.532 0.258 0.671 -0.541 0.266 -0.104 0.594 1.223 0.077 -0.602 -1.605 0.730 0.787 0.188 -1.079 -0.883 0.365 0.685 0.103 0.436 -0.992 -0.852 0.103 1.272 0.909 -0.182 0.938 -1.343 -0.378 -1.040 -0.212 -0.141 1.481 0.494 0.221 -0.453 1.073 -1.198 -0.170 -0.216 0.214 0.847 0.568 -0.553 1.039 -0.789 -1.119 -0.178 -0.240 -0.283 0.513 -1.531 -0.732 -1.794 -0.674 0.976 -1.277 -0.646 -1.448 -1.061 0.894 0.226 0.261 -0.322 1.103 -1.831 0.275 0.239 -0.057 0.186
aussitôt 0.781 -1.394 -0.363 -0.168 1.637 0.443 0.725 0.647 -1.173 -2.610 -1.341 2.587 0.688 -2.539 0.300 -1.089 1.979 0.307 -1.830 -0.387 -0.379 -1.629 -0.475 -0.701 1.192 1.662 0.334 -0.516 0.701 -1.379 0.033 0.065 -0.628 1.186 -1.564 -0.739 0.451 0.578 0.221 0.344 0.016 -0.619 0.652 -0.844 -0.628 -0.026 -0.431 1.715 0.510 -0.096 -0.834 0.676 0.826 -0.928 -0.010 1.180 0.270 -0.125 0.016 0.714 -0.164 0.756 -1.157 -0.431 -0.945 -0.106 1.828 -0.615 0.181 1.628 -0.330 -0.208 1.133 1.201 1.405 0.522 1.296 -0.330 0.466 -1.221 -0.515 -0.812 -0.912 -2.067 -0.498 -0.817 1.747 1.998 0.549 0.061 -0.564 1.100 0.341 -1.562 0.546 0.270 0.577 1.669 -1.162 0.995
du 0.318 1.383 0.763 -0.804 0.875 -1.321 0.913 -0.001 0.232 0.024 -0.644 -0.350 -0.617 -0.321 -0.392 2.791 1.471 0.532 0.926 2.154 0.392 0.804 1.178 -0.532 -1.244 0.234 -0.558 -0.862 -0.796 -0.800 0.749 -0.657 0.595 -0.282 -2.294 -0.960 -0.789 0.810 -0.117 0.656 1.671 0.034 -1.445 0.758 1.049 0.085 -0.240 0.342 0.317 -2.447 -1.302 0.268 1.815 -1.733 -1.162 -1.757 0.277 0.119 -0.207 0.785 -1.507 -0.469 0.923 0.620 0.568 0.914 -0.201 -1.169 0.759 0.614 -0.440 0.427 0.821 0.296 2.363 1.401 -0.461 0.439 0.900 0.617 0.606 -0.640 -1.637 -0.971 -0.735 1.382 1.653 1.463 -2.735 -0.455 0.289 1.417 1.238 -0.573 1.571 -0.322 0.658 1.351 -0.080 -1.340
port -0.130 0.154 -2.342 -0.129 0.022 0.257 -0.522 0.740 -2.541 -0.944 0.449 -0.957 0.747 -1.206 0.751 0.439 -0.283 -1.008 1.123 -1.385 -0.015 -0.063 -0.431 -0.726 0.662 -0.819 -0.787 -0.176 0.273 0.745 0.774 1.049 0.019 -0.054 0.597 -0.343 -0.681 0.453 0.939 0.653 0.839 -0.387 0.593 -0.697 -1.574 -2.104 -0.691 -0.592 -0.151 1.731 -1.192 0.589 -1.420 -0.096 -0.302 0.306 1.779 -0.963 -1.033 0.309 -1.872 1.130 -0.182 1.603 1.535 -2.699 0.638 -1.038 0.953 1.327 0.702 -0.043 -1.941 -1.649 -1.689 1.829 -1.459 0.785 0.913 0.964 -0.034 0.410 -0.787 -1.828 -0.658 2.712 -1.500 -0.205 -0.694 0.318 -1.813 1.728 -0.780 -0.212 -0.840 -0.103 -0.941 -0.693 0.202 -1.063
rasa 0.126 -0.253 -0.001 -1.474 0.638 -2.219 0.643 1.187 1.510 0.504 -0.271 -0.561 0.189 -0.880 -0.447 -0.780 0.881 -0.071 0.443 0.130 -0.194 1.047 -0.504 -1.036 -2.216 -0.985 0.823 -1.523 0.375 -0.287 0.168 -0.065 1.306 1.222 -0.455 -0.288 1.932 0.965 -0.767 -0.610 -0.714 -1.489 -1.677 0.331 0.753 0.016 -0.604 1.949 0.362 -0.591 -0.835 -0.255 2.073 0.132 -1.613 0.881 -0.715 0.360 0.468 0.198 0.117 1.853 -0.280 0.098 0.076 -0.737 0.170 -0.955 0.657 -0.149 -0.240 -2.661 -0.271 -1.356 0.168 -0.953 -0.773 -1.405 0.308 -1.060 1.407 1.599 0.459 -0.626 -0.079 0.226 1.353 0.934 0.423 -1.853 0.539 -1.124 0.219 1.078 -0.715 -1.615 0.759 -1.091 0.429 0.013
château 0.045 -1.851 0.816 -0.824 -0.005 -0.174 0.368 1.212 -1.710 -2.015 -1.476 0.283 0.636 -0.054 -1.809 0.500 1.585 0.945 -0.580 0.430 0.587 1.758 -0.474 -0.146 1.865 1.747 2.421 -3.349 0.097 -0.038 -0.269 0.025 0.874 1.335 -0.278 0.770 1.534 2.104 0.299 -0.088 -0.861 -0.661 0.493 -0.433 -0.805 -0.651 -0.306 0.972 -1.810 0.996 -0.034 -0.272 -0.066 -0.494 -0.129 -0.063 -0.162 -0.923 -0.021 -0.375 0.401 -0.120 -0.006 0.330 -1.045 1.426 -1.207 -0.840 -0.837 0.055 -0.809 -1.219 0.247 0.038 1.320 -1.429 -1.193 1.246 -0.928 -0.989 -0.873 -0.904 1.211 0.069 -0.804 1.044 0.262 1.410 -1.116 0.978 -0.393 0.990 -0.092 -0.204 1.046 1.410 -0.134 0.403 -1.142 -0.287
if -0.922 1.256 -0.996 1.936 -0.135 -0.663 0.901 0.077 1.487 -1.587 -0.444 -1.102 -3.591 -0.962 0.897 -0.839 -0.814 -1.432 -0.350 -1.512 -1.153 -1.994 0.701 -0.310 -0.214 -0.603 0.008 0.863 -0.805 -0.466 -0.698 0.104 0.764 0.674 1.991 0.382 -0.478 -0.894 -0.091 -0.146 1.207 0.104 -1.337 1.396 -1.074 -0.709 -0.254 1.159 0.866 -1.046 -0.329 0.112 -1.847 0.869 -0.884 0.461 -0.541 -0.063 -0.292 -1.615 -1.297 1.251 -0.994 0.950 0.470 0.168 -0.642 -0.726 -1.087 -0.954 -0.675 1.541 0.604 -0.952 3.763 -0.435 -0.686 -1.467 -0.814 0.341 -0.531 0.390 -0.894 -1.492 0.507 -0.854 -0.344 -0.560 -1.649 1.308 -0.459 -1.735 0.064 -1.031 -0.737 0.108 1.293 0.911 0.623 0.477
alla 1.208 0.661 0.076 -0.555 1.152 1.761 -1.127 1.497 -0.528 -0.366 0.775 0.623 1.801 -0.905 -0.089 -1.402 2.432 -1.475 -0.432 -0.519 -1.684 -1.026 0.443 -0.141 -0.286 0.144 0.598 1.308 1.986 -0.948 0.967 0.605 0.843 1.048 -0.630 -1.655 -0.497 -0.003 -1.494 0.890 -0.280 0.317 -0.127 -0.531 1.012 -0.844 -1.031 0.688 -0.354 -0.551 -0.445 -0.609 -1.471 -0.117 2.272 -0.064 -1.107 0.853 1.416 0.396 0.564 0.838 1.633 0.723 1.847 -0.731 -2.146 1.497 -1.806 0.359 -0.729 -0.051 0.924 1.668 1.434 -0.740 -0.758 -1.059 0.074 -1.114 0.668 -1.334 -0.783 -2.662 -0.565 0.690 -0.112 0.665 0.888 -1.334 0.252 0.689 1.712 -0.023 -0.474 1.034 0.808 -0.263 0.092 -0.455
aborder 0.487 1.257 1.176 0.374 0.502 0.002 -0.397 -0.086 -1.288 0.192 1.527 -0.510 -0.109 0.894 -0.067 -0.796 1.247 -0.111 0.099 0.625 0.745 -0.105 1.923 2.180 0.443 -0.128 2.017 -0.691 0.129 1.092 1.131 -0.196 -0.346 -0.102 -1.012 0.369 0.599 0.700 0.136 -0.291 -0.025 0.547 -1.190 0.829 0.571 -1.926 -0.290 1.493 -2.000 1.566 0.775 0.417 0.823 0.670 -0.500 -0.026 -1.872 -0.647 -0.038 -0.488 0.020 -0.334 0.078 0.839 -0.206 0.606 -0.169 0.357 0.624 -0.822 -0.204 0.236 0.162 0.282 0.669 0.320 -1.897 -0.777 -1.423 1.292 -0.838 0.992 0.372 -0.577 -0.777 2.673 0.121 -0.022 0.228 1.257 0.488 -0.034 -1.311 1.592 2.400 1.320 0.033 0.166 -0.825 0.415
navire -1.389 -0.129 1.106 1.092 -0.966 0.514 -1.347 -0.834 -0.797 -0.311 -0.085 0.744 0.143 -1.525 -0.020 -1.211 -0.394 0.236 -0.215 -1.046 0.828 0.169 -1.768 -2.058 -0.660 -0.407 2.290 -0.309 0.903 -0.119 0.691 -1.131 0.737 0.444 0.451 -1.951 1.228 0.137 0.658 0.530 -0.141 -0.400 -1.426 0.222 -0.122 -1.440 -0.384 1.042 -0.524 0.932 1.281 2.329 0.559 -1.108 -1.410 0.073 0.092 1.674 -0.918 -0.436 -0.375 0.090 -0.100 1.295 -0.397 -2.059 -1.225 0.242 -0.301 0.506 0.817 0.066 -2.982 -1.160 0.459 -0.765 0.055 -1.446 1.123 1.339 -1.188 1.505 -1.811 -1.683 -0.963 0.931 -1.315 -0.819 -0.019 -0.118 0.656 0.396 0.397 -1.139 -0.361 -0.082 -0.287 -0.328 0.242 0.698
entre -0.157 1.227 -0.581 0.091 1.630 0.159 -0.671 1.230 0.118 1.736 0.231 -1.585 -0.314 -0.330 1.116 -0.719 1.672 -0.277 0.651 -0.647 0.859 -0.656 0.443 -0.165 0.246 -1.146 -0.964 0.550 0.787 0.909 -0.151 -0.325 0.394 -0.137 -2.611 1.263 2.346 -0.213 -1.172 1.012 -0.447 -0.494 0.310 1.502 -0.194 -1.459 -0.786 0.232 -0.224 0.622 1.605 -0.120 0.060 1.372 1.010 -1.081 0.794 -1.623 -2.509 -0.757 -0.573 -0.467 -0.392 0.042 2.676 -0.112 0.154 1.539 -0.393 0.335 -0.857 0.193 2.240 -0.719 1.537 0.594 0.842 -1.099 -0.543 1.868 -0.220 0.132 -2.673 -1.162 0.531 1.178 0.110 0.053 -0.894 -0.801 0.346 -0.201 -0.730 0.261 1.098 1.101 1.758 0.497 -0.891 -2.184
cap -1.135 0.399 -0.794 0.276 1.961 -1.201 -0.296 -0.261 -0.481 -0.065 -1.396 0.989 -0.404 0.235 0.021 -0.316 1.219 0.358 1.487 -0.150 -1.346 0.615 0.926 -0.595 -1.951 -0.299 0.033 -0.321 0.047 -0.796 -0.211 -0.252 -1.825 -0.610 -0.621 -0.068 1.966 -0.238 -0.335 -1.605 -0.636 1.226 0.049 -0.234 -0.022 -0.549 -0.313 -0.206 0.069 -0.144 -0.435 -2.548 -1.220 -0.080 -0.646 0.355 0.568 -0.875 0.006 -0.297 1.097 1.034 1.167 0.636 -0.671 0.915 0.195 1.362 -1.084 0.186 -0.919 -0.630 0.582 0.942 -1.124 -0.978 -0.524 -0.691 0.602 -0.677 -0.013 0.105 -0.666 -0.761 1.140 -0.004 -1.372 2.003 0.901 -0.936 -1.499 -0.799 0.247 1.699 0.297 0.653 1.434 -0.350 -0.665 -0.207
morgion 1.256 0.404 -0.163 0.102 1.470 -0.877 1.174 -0.368 -0.864 -0.847 1.986 0.696 0.814 -0.876 0.653 -0.263 -0.323 -1.480 0.545 0.364 -0.282 -0.949 -2.383 0.250 1.255 0.948 0.207 2.091 -0.106 -1.240 -0.004 -0.982 -1.671 0.851 -0.841 -0.468 -1.312 -0.857 1.759 0.596 -1.228 0.579 -0.427 -0.742 0.760 -1.883 -0.780 1.348 -1.740 -0.949 -1.908 1.484 -0.624 0.588 -1.742 0.450 0.918 0.991 -0.245 -0.617 -2.617 1.284 0.548 0.342 -1.612 -0.805 1.607 -0.400 0.198 -1.324 -0.231 -2.356 -1.054 1.427 -0.160 0.330 0.209 1.070 0.239 0.444 0.209 -0.217 0.722 -1.399 0.871 0.169 0.139 0.263 -0.083 -1.118 -0.210 0.892 -0.451 0.753 1.911 1.432 1.343 0.198 -0.862 -0.759
l’ 0.316 -0.735 0.224 -0.801 1.005 0.637 -0.178 0.740 -0.441 -1.908 -0.180 -1.139 1.357 -0.077 0.113 0.961 1.737 -0.625 -0.791 0.496 0.379 -0.254 -0.176 -0.725 -0.324 -0.957 0.667 -0.358 0.146 -0.684 0.214 -1.193 -1.467 1.336 -1.406 0.739 0.539 0.911 0.378 0.611 1.322 1.148 0.108 -0.766 -1.082 -0.011 1.114 0.618 -0.495 -0.051 0.911 -3.024 -0.153 -1.369 -0.262 -0.222 -0.614 -1.068 -0.388 0.622 -0.380 1.001 -0.395 0.681 -0.418 -0.616 -0.391 0.796 -1.871 0.408 -0.149 -0.913 0.053 -1.451 -0.343 0.732 -0.848 0.329 0.716 0.502 0.016 0.288 -1.041 1.095 -0.825 0.191 0.485 0.677 0.420 -0.432 -0.567 -0.774 0.337 1.276 -0.866 -0.284 -0.568 0.244 0.051 0.927
île 0.186 -0.659 -0.129 -0.678 -0.612 0.170 -0.158 0.024 -1.393 -0.716 -0.380 -0.012 -0.104 -0.705 -1.642 1.188 0.777 -0.367 -1.604 0.275 0.745 -2.071 0.049 -1.308 -0.872 -1.014 -1.307 0.510 -0.968 -0.142 0.733 -0.403 -1.167 1.167 0.236 0.741 -2.839 -0.346 0.925 -0.330 0.211 0.715 -0.749 -1.552 -0.145 -1.384 -1.069 0.865 0.391 1.211 -0.512 0.639 -0.364 1.174 -0.652 1.036 -1.040 -1.217 0.930 0.905 -0.750 0.562 1.219 1.803 0.416 0.108 0.381 0.464 -1.531 1.742 0.622 -0.594 0.346 0.453 -0.362 0.865 0.431 1.479 0.666 -0.841 2.132 -0.206 -1.077 -0.258 0.182 0.805 -0.403 0.641 -0.498 0.619 1.729 -0.693 -0.153 0.852 0.207 0.398 -0.423 0.141 0.667 0.519
rion 0.982 -1.042 1.329 -0.701 2.263 -0.599 -0.549 0.162 0.022 -0.291 0.680 -1.978 -0.645 -1.369 -0.315 0.034 0.578 -0.440 0.192 0.006 0.264 -0.057 0.332 1.971 1.039 -0.457 0.841 1.174 1.220 -0.932 -0.675 1.355 0.515 0.600 0.386 0.753 -1.415 0.488 0.701 -0.291 -1.465 0.113 -0.536 -0.030 0.026 -0.352 -0.063 -0.666 0.956 -0.582 0.316 -0.580 -1.244 -1.893 1.621 -1.547 2.022 -1.166 0.190 -1.023 2.025 -1.578 0.161 -1.293 -0.981 0.225 -0.817 0.001 -0.693 1.234 -0.067 1.296 1.637 -0.426 -0.657 0.091 0.795 -0.599 1.487 -0.154 0.901 -0.768 -0.311 -0.853 0.051 0.650 0.096 1.140 0.045 -1.084 -0.193 0.402 0.166 0.925 1.720 1.075 2.085 0.032 0.394 0.597
encore -0.710 -1.637 -0.703 -0.128 0.247 -0.938 0.274 0.409 -0.998 -0.468 0.831 -1.432 0.287 0.193 0.708 0.293 0.084 -0.780 -0.505 -0.114 0.669 -0.514 0.381 -0.589 -0.479 -0.546 0.508 -1.620 0.692 -0.152 0.505 -0.240 1.018 1.197 1.303 0.394 1.840 -0.681 0.402 0.905 0.646 -1.001 -0.191 1.182 1.088 -0.952 2.480 1.564 1.462 0.184 0.317 1.473 -1.618 -0.714 0.273 -0.423 -1.465 -0.031 0.513 0.613 -0.753 0.210 1.105 -1.025 0.246 -0.854 0.737 -0.595 0.732 1.064 -2.296 -0.195 0.279 -0.392 1.266 -1.300 0.279 -1.335 -1.588 1.000 -0.334 -1.207 -0.928 0.578 1.753 -0.368 -0.726 -0.380 -1.054 -1.373 0.961 0.594 1.083 1.567 1.447 -1.068 2.636 -1.277 -0.562 0.670
plate -0.782 -0.218 1.685 -0.793 0.996 0.130 -1.482 -0.722 -1.530 1.068 -0.595 -0.723 2.817 -0.724 -0.896 0.488 0.083 1.509 -0.278 -1.398 0.559 0.855 0.116 0.281 1.040 0.314 0.568 -0.153 0.153 0.956 1.096 1.563 0.625 -0.092 1.631 -0.373 0.386 1.144 0.367 1.376 -1.051 -0.156 -1.568 -0.408 -0.882 -0.019 -0.602 0.209 1.053 -0.518 -1.341 0.491 -0.522 -1.883 -1.368 1.351 0.406 0.386 -0.226 0.156 -0.470 -1.030 -1.205 -0.527 1.516 1.232 0.777 0.041 -0.007 0.469 1.736 0.282 0.432 -0.250 1.552 0.356 -0.565 -0.587 2.314 -0.170 1.351 -0.872 0.135 -0.982 -0.046 1.877 1.325 0.509 -0.304 -0.455 -1.866 -1.754 0.834 -0.429 0.127 -0.900 0.279 0.348 -0.494 -1.375
forme 1.068 -0.282 0.644 0.221 1.676 -0.203 0.245 1.147 -0.675 -0.961 -0.911 -2.559 0.709 0.450 -1.272 0.995 -0.872 -0.566 -0.505 0.199 0.609 1.193 0.688 0.651 -0.401 -1.537 -0.952 1.052 0.756 0.156 -1.288 1.252 -0.558 -0.606 -1.543 -0.663 1.439 -0.506 -0.619 -0.412 0.455 -0.722 -0.771 -0.400 0.584 1.300 1.124 1.856 1.096 -1.305 -0.422 0.341 0.311 1.239 0.632 -0.952 1.378 -1.391 0.583 -0.091 2.435 1.430 1.350 -1.591 0.956 0.585 2.101 0.329 -0.882 0.243 0.429 0.699 0.062 1.544 -0.322 -1.366 1.008 1.249 -1.450 -1.807 1.942 1.043 0.857 -1.726 -0.020 0.122 -0.725 -1.181 1.038 0.764 -1.445 1.097 -0.989 0.343 0.070 -0.217 0.964 -0.157 -2.081 0.114
fort 1.720 -0.319 -0.469 -1.332 -0.551 -1.240 -1.294 -0.179 -1.477 -0.170 0.914 -0.560 0.153 0.440 -0.816 1.771 -0.142 -1.807 -0.756 3.253 0.682 -2.316 0.611 -0.287 -1.292 0.452 -0.043 -0.559 -0.306 -1.001 -1.455 1.215 0.459 1.289 0.627 0.310 0.170 0.783 0.223 -1.759 -0.160 0.843 0.084 -1.060 -0.569 -1.801 -1.429 -0.185 -1.060 0.777 -1.258 0.454 -0.568 -0.266 0.711 1.031 0.085 -0.706 -0.110 -1.021 -1.339 0.133 -0.897 -0.895 0.998 0.058 -0.282 0.539 -0.072 0.904 -1.088 1.366 -0.207 -1.464 0.424 -2.203 0.314 0.099 -0.839 0.478 -0.789 -1.081 -0.996 1.903 -0.434 0.485 -0.015 -0.986 -1.448 -0.207 -1.887 -0.434 0.498 1.154 -0.327 -0.690 0.317 -0.034 0.452 1.922
saint 1.122 0.971 0.711 -0.720 1.281 0.358 -0.630 0.659 -0.092 1.445 -1.331 -0.897 0.500 2.253 -0.166 -0.029 -0.676 -1.336 0.008 -0.907 1.501 -0.026 -0.439 1.441 0.349 0.364 -0.894 0.709 -1.605 -1.683 -0.130 0.280 -0.115 -0.364 -0.380 1.261 0.664 1.636 0.045 0.228 -1.245 -2.638 -0.109 1.328 -1.688 0.301 -1.777 -1.017 -0.278 -0.400 -0.960 -0.069 -1.091 -0.503 -0.119 1.819 -0.309 -1.455 -0.606 -1.102 -0.334 0.231 -0.553 0.136 -1.519 -0.056 0.954 0.353 0.212 1.778 -1.086 -1.883 0.437 -2.880 -0.322 -0.677 0.385 1.136 0.906 -1.481 1.045 0.871 -0.405 -1.792 0.705 -0.031 1.497 0.337 -0.587 -0.545 -1.123 0.281 0.249 0.376 1.155 -0.258 1.255 0.756 1.574 -0.921
jean -2.131 -0.544 -0.455 -0.001 0.578 0.586 1.781 -0.902 0.558 -0.237 0.785 1.994 0.016 0.016 -0.009 -0.171 0.869 -0.758 0.340 -3.056 0.692 -0.483 0.320 0.110 -1.109 1.387 0.548 -0.256 0.075 0.466 -0.524 1.267 0.897 -0.589 0.105 0.378 -0.429 0.917 -0.444 -1.183 0.163 -0.158 0.268 1.476 -0.699 0.718 -1.390 -0.851 -1.036 0.376 0.038 -0.617 0.886 -0.122 -0.716 1.574 -2.044 -1.458 0.289 -1.263 -1.690 0.540 0.691 -1.136 -0.646 0.499 0.969 1.129 -1.374 0.170 0.597 1.371 1.476 -1.118 -0.207 0.457 -0.029 -0.736 -0.593 -0.687 -0.808 0.566 0.136 -1.741 0.112 1.613 0.024 -1.457 -1.464 0.550 -0.916 0.214 0.025 1.335 0.294 0.256 -0.080 1.189 0.570 -0.521
s’ -0.302 0.620 -1.955 1.137 0.107 0.561 0.185 0.517 -1.448 0.151 1.975 1.561 0.406 0.608 -0.196 2.254 0.189 -2.011 1.240 -1.309 0.567 0.957 0.568 -0.068 0.492 -1.486 -1.138 0.386 -0.921 -0.451 1.614 1.375 -0.234 0.587 -2.111 -0.519 -2.133 0.178 0.718 -1.138 0.595 1.302 -0.732 -0.533 -0.546 -0.103 0.081 -0.239 0.143 0.611 -0.055 -2.024 1.491 -0.005 -1.264 -0.982 -0.383 -0.353 0.566 -0.433 0.148 1.231 -0.424 0.081 -0.482 -0.741 -1.846 1.439 1.618 0.451 -1.726 0.229 -0.288 -1.194 -1.790 -0.841 -0.698 -0.794 1.625 -0.029 1.108 0.112 0.514 -1.190 0.028 0.531 1.209 1.345 -0.439 -0.829 -0.206 0.223 0.082 0.061 0.602 1.279 -1.150 0.385 2.149 1.480
était 0.164 -0.670 0.369 -0.741 0.599 -0.093 -0.601 -1.416 0.212 -0.321 -0.453 1.071 -0.284 -2.381 0.594 0.981 0.176 -0.073 0.097 -1.001 -1.334 1.040 -0.635 0.571 1.213 -0.138 -1.681 0.083 0.681 -0.363 -0.010 0.816 0.333 -0.011 0.133 -0.262 0.493 -1.504 0.475 0.639 0.207 0.057 0.868 -0.031 -0.912 -0.686 -0.329 0.132 1.730 -0.714 0.237 0.282 -0.644 -1.450 0.528 0.650 0.065 -0.015 -0.798 0.170 -0.537 0.675 0.496 -0.465 -0.404 0.416 -1.132 -2.487 -1.193 -0.157 0.413 0.011 1.519 -0.355 -2.139 0.901 -0.449 1.388 1.266 -1.064 -0.984 0.667 0.336 -1.254 0.525 1.108 0.406 1.725 -1.137 0.701 -1.055 0.113 -0.695 0.386 -1.998 1.092 0.749 1.079 -0.332 2.195
couverte -0.204 -0.995 -0.656 -2.021 -0.880 -0.218 -0.402 1.235 1.016 0.720 -0.095 -1.873 -0.976 -0.412 0.270 -0.820 2.292 -0.675 -0.264 -0.185 0.042 1.282 2.672 1.055 -2.152 0.048 -0.578 -0.008 -0.112 -0.679 -1.120 -0.819 -0.676 -0.713 -1.581 -0.688 -1.482 0.879 2.096 0.142 -1.339 0.720 -1.713 1.603 -0.341 -0.669 -0.370 -1.586 0.175 0.332 0.726 -1.001 0.429 -0.197 -0.850 0.850 -0.383 -0.009 1.281 0.417 -1.682 1.588 -0.903 -0.783 -0.450 -1.832 0.085 -1.152 0.015 1.003 -0.254 0.323 0.914 -2.813 0.397 0.363 1.170 -1.510 0.137 0.536 -1.220 0.553 -1.693 -1.614 0.111 0.870 0.810 -0.427 -0.165 -1.516 -0.852 -1.926 -0.557 -0.557 -0.665 0.473 -0.033 0.530 -0.275 -0.496
curieux 0.656 -1.656 0.295 -0.638 1.543 0.052 -2.358 0.897 1.598 -1.656 -0.182 0.213 -0.143 -2.955 -1.883 -1.021 1.694 -0.251 0.778 -1.059 1.315 -0.068 -0.852 1.396 1.052 -0.669 -1.144 -0.720 1.069 -0.007 0.446 0.538 1.243 -0.633 0.271 -1.188 -0.740 -0.267 -0.793 0.616 0.214 -1.086 0.223 -0.445 0.101 0.386 -2.568 0.063 0.392 0.037 -1.062 -1.878 -1.401 -1.503 -0.053 -0.618 0.210 -0.686 -0.227 0.671 -0.441 -1.116 -0.340 0.892 0.759 -0.961 0.297 -1.306 -0.842 0.025 -0.477 -2.050 -1.098 0.588 0.010 -0.343 0.446 1.615 -1.359 0.383 1.432 1.174 -0.447 -1.940 -1.571 2.400 1.506 -1.615 0.491 0.267 -1.031 0.116 -0.218 -1.125 1.149 -0.604 -1.770 0.775 -0.848 0.756
; -0.106 0.056 0.186 1.045 2.076 -0.834 -0.568 1.259 -0.371 0.282 0.752 -0.893 1.333 -0.294 -0.612 1.697 0.585 -0.081 -0.679 -0.555 1.749 1.060 2.615 0.588 0.739 -0.768 1.922 -0.492 0.767 -0.205 -0.296 -0.522 -1.810 1.130 0.784 1.023 -0.854 -0.776 -0.279 0.226 -1.077 0.475 0.510 0.886 -0.619 -0.728 -0.625 1.509 1.002 0.492 -0.782 -1.532 0.529 -0.040 0.108 0.572 0.134 -0.936 0.724 -0.827 -2.095 0.234 -0.674 1.035 -0.225 -1.021 0.563 -0.355 1.146 1.195 -1.818 0.051 -0.555 1.456 0.279 0.243 0.908 -0.538 -1.188 0.562 0.057 0.903 -0.536 1.351 -0.118 -1.667 1.014 0.390 -0.730 -0.049 -0.536 0.126 2.447 -0.918 -1.136 0.015 0.622 -0.956 0.293 -0.187
car -0.564 1.550 0.559 -0.351 1.173 -0.489 0.686 0.415 -0.535 -2.570 0.148 -0.263 1.218 1.018 0.607 -1.623 0.592 0.551 -0.141 -0.023 -0.393 0.382 -1.375 0.986 -0.626 0.313 -0.485 1.587 0.409 -1.122 0.789 -0.242 -0.131 -0.022 2.488 0.184 0.050 0.565 -0.207 -1.752 0.727 -0.331 -0.327 -0.576 -0.093 0.104 -0.204 0.009 -0.113 -1.899 -0.012 -0.418 0.400 -0.248 -0.684 1.280 -0.459 -1.252 -1.235 0.558 -0.184 2.077 1.765 0.439 -0.384 1.778 2.102 0.371 0.806 0.597 -1.412 -0.133 -0.366 -1.517 0.767 0.026 0.648 0.064 0.884 -0.098 -0.893 -0.344 -1.857 0.493 -0.567 0.058 1.290 0.102 -1.568 0.268 -0.817 -2.359 0.358 -1.261 0.088 0.636 -0.303 0.674 -0.473 0.776
c’ -1.557 -1.243 0.304 0.849 1.278 1.842 -0.956 1.203 -0.030 0.234 -1.006 -1.090 1.723 -0.183 2.227 1.079 0.073 0.217 -0.914 -0.202 -2.623 1.940 0.137 0.593 1.880 -0.980 -1.804 1.793 2.378 -0.862 -1.016 1.109 -0.877 0.697 -0.941 0.545 -1.072 -1.485 -0.364 0.182 -1.661 -2.331 -1.037 -0.609 -0.341 0.469 0.335 -0.298 0.915 -0.263 2.130 1.253 0.332 0.281 -2.084 0.206 -1.511 -1.104 -0.299 -0.343 -0.518 0.974 0.986 -0.561 0.905 0.414 -0.578 0.025 -1.056 -0.435 -0.321 -1.140 -1.513 -0.786 2.157 0.917 0.676 -1.325 -0.806 0.600 -0.616 -0.767 0.322 -0.119 0.723 1.393 0.815 -1.377 0.412 1.187 -0.023 0.253 0.006 -0.701 0.033 -0.194 -0.938 -1.136 -0.259 2.324
est -1.166 -1.150 -1.073 -0.034 0.249 0.760 -1.059 0.964 -0.698 0.855 -0.419 -0.983 0.336 -1.169 0.297 1.530 -0.593 1.854 0.730 -1.957 0.962 1.173 0.017 -0.983 0.858 -1.163 -0.144 0.673 -0.223 -2.553 -0.999 0.883 1.529 0.617 0.211 -1.021 0.365 -0.695 -0.663 0.254 0.438 0.302 -0.463 0.961 -0.308 -0.676 -0.141 -0.001 -0.056 0.563 0.279 -0.403 1.072 -0.578 -0.335 1.465 -0.359 -0.406 1.547 1.122 -1.491 0.945 -0.267 0.081 1.626 -0.515 -0.943 -1.239 -0.062 0.575 -1.078 -0.492 0.649 0.312 -0.292 1.656 0.437 0.848 1.026 -0.886 -0.643 0.138 0.116 -0.983 0.646 0.007 -0.662 0.774 0.064 -1.278 -0.281 0.626 -0.120 1.518 -0.956 1.048 1.052 -0.764 0.350 1.603
toujours -0.435 0.968 -1.100 0.046 0.530 0.954 -0.787 0.085 -1.377 -1.614 0.421 -0.751 -1.115 -0.733 -0.226 -0.456 0.139 0.494 0.065 0.892 0.343 1.362 -0.358 0.073 0.329 0.361 0.197 -1.249 0.148 -0.079 -0.135 -0.267 -0.447 -0.142 -0.094 -0.572 -0.947 -0.018 0.026 -0.452 0.400 -0.856 0.460 0.569 -0.202 0.905 0.014 1.361 0.311 -0.260 -1.291 0.508 0.120 1.173 2.947 -0.135 1.188 0.792 -0.219 -1.243 0.995 1.506 -0.808 -0.743 0.199 -0.498 0.247 -0.642 -0.963 1.412 -0.246 -0.237 -0.126 -1.380 0.702 -0.167 0.556 0.773 -1.084 -0.126 0.585 1.779 -2.891 -1.794 2.463 0.582 -1.872 0.028 0.293 -0.992 0.342 0.238 0.379 0.320 -0.858 -0.834 0.602 0.019 -0.147 -0.799
une -0.520 -1.259 2.002 -0.689 1.200 -1.076 -1.769 0.248 0.606 0.854 -0.873 0.141 0.116 -2.721 1.662 1.080 -0.137 -0.463 0.109 -0.214 0.822 0.534 -1.742 -0.563 0.311 -0.574 0.052 -0.210 0.380 -0.165 -0.939 -1.066 -0.364 1.091 1.218 -0.935 -0.463 -0.063 0.482 0.172 -0.142 0.541 -0.920 0.448 -0.471 1.011 0.493 0.869 -0.771 0.702 -0.268 -0.484 -2.769 0.824 -1.330 1.283 0.408 -2.269 -1.353 0.686 0.195 0.247 -0.127 0.150 0.659 1.947 1.278 -2.100 -0.474 0.617 -2.103 -0.674 0.445 0.358 0.420 0.988 -1.485 -0.837 1.446 0.650 -1.496 -0.320 -0.725 0.319 -0.450 1.118 -0.227 0.037 0.007 -0.846 1.033 -0.552 0.130 1.931 0.543 -0.086 0.630 -0.137 1.694 0.127
grande 0.019 1.658 0.371 -1.281 1.253 0.604 -0.602 -0.169 1.279 0.369 0.965 -0.367 -0.368 1.445 0.437 1.226 1.055 -1.499 0.571 0.181 -1.263 0.480 2.118 0.565 -1.598 -1.845 -0.289 1.083 1.121 -0.311 1.135 0.843 0.174 0.454 -0.460 -0.333 0.661 -1.299 0.347 1.202 1.413 -0.522 -0.334 0.319 -1.158 0.513 -0.290 0.133 -1.196 0.818 -0.499 0.180 0.915 -1.340 -0.971 -1.062 -0.311 0.195 -1.007 0.140 -0.490 -0.192 -0.055 -1.049 1.451 1.703 1.313 1.641 -0.827 0.428 -1.870 1.176 1.870 0.305 1.494 -0.185 0.601 0.963 0.113 1.913 0.778 -0.536 -0.789 -0.835 -0.404 2.130 0.586 2.085 1.577 0.861 0.245 0.490 -0.008 -1.434 -1.548 -1.512 -0.619 -1.689 -1.637 0.705
affaire 1.294 0.746 -1.049 0.173 0.420 0.334 -0.634 -0.083 0.476 -0.749 1.326 1.926 0.668 -0.648 0.745 0.304 0.453 0.428 0.863 0.943 0.849 -0.191 0.519 0.465 0.809 -1.038 -0.895 -1.145 1.616 -0.677 -0.240 1.323 -0.144 0.284 0.083 0.600 0.735 0.888 1.915 0.088 0.070 1.508 -1.598 -0.026 -1.016 -0.189 0.613 0.843 -1.583 -1.457 -0.078 2.105 1.441 0.149 0.512 -1.024 1.885 -1.313 -1.680 -0.074 0.148 -1.706 -0.163 0.557 -0.606 0.724 -0.333 0.345 0.815 0.382 -0.418 0.522 1.848 0.128 0.697 0.362 0.042 -0.877 0.308 0.938 0.818 -0.312 0.878 1.528 -1.077 0.696 -0.162 0.934 1.596 -1.513 -1.838 0.222 1.026 0.738 -0.983 -0.852 -0.604 -0.377 0.656 0.478
à -0.289 -0.883 0.782 -0.432 0.600 -0.498 -0.342 1.313 0.620 0.442 0.592 -1.370 0.450 -0.008 -0.617 0.404 0.508 0.374 0.979 -0.582 0.899 -0.863 1.274 -0.487 0.264 0.648 -1.396 -1.306 2.473 -1.302 -0.842 0.236 0.044 -0.158 -0.112 -1.660 1.379 -0.047 0.573 0.905 -0.227 -0.078 1.727 0.545 -1.531 -0.877 -1.225 2.099 1.493 -1.396 -0.787 -0.059 -0.734 -0.010 0.642 -0.015 -1.257 -0.036 -1.212 -2.292 1.006 1.872 1.095 1.926 -1.531 -1.217 1.511 0.108 1.450 -1.129 -0.095 -0.887 0.153 -0.070 1.115 0.134 0.241 1.196 0.796 0.207 1.122 -0.245 0.076 -1.175 -0.893 2.528 -0.910 0.768 -1.422 -0.274 -0.276 -0.948 -1.694 1.071 -0.676 -0.363 -1.120 -0.450 2.223 1.646
marseille -0.377 1.365 -0.065 0.205 2.525 -0.891 1.959 0.662 -1.573 0.632 -1.168 -0.909 1.515 0.596 0.685 -0.145 1.081 -1.104 -0.243 -0.854 0.125 1.030 -0.007 -0.192 -0.711 1.180 -0.757 1.062 0.621 0.537 0.704 -2.281 0.291 1.322 -0.986 0.074 -0.510 0.687 0.358 -0.879 0.809 -1.164 1.247 -0.036 -1.808 -1.682 -0.277 0.327 -1.180 0.056 0.999 -0.167 -0.217 -0.670 0.285 0.170 0.090 0.192 0.481 -1.224 0.811 1.567 1.602 -1.473 0.013 -0.628 -1.356 0.307 -1.342 1.388 -0.907 0.693 0.520 -0.116 2.641 0.686 1.860 -0.900 -0.449 0.216 0.589 1.420 -0.759 -0.232 -0.591 -1.191 -1.033 0.968 -0.163 0.028 1.685 -1.262 -0.162 -0.502 -0.116 1.666 0.885 0.461 -0.929 1.993
que -0.759 0.116 -0.266 1.723 -0.659 -0.842 0.227 -0.095 -1.050 1.034 1.247 -2.046 -1.155 -0.434 -1.331 0.161 -1.087 -1.361 -2.325 1.274 -1.120 1.042 -0.311 0.917 -0.135 1.368 -0.768 0.162 -1.155 -0.609 -0.203 -0.446 -0.184 0.029 -0.822 -0.345 -0.814 -0.988 -0.260 -0.143 1.248 -1.328 -0.974 -0.776 1.862 -1.741 -1.068 1.117 1.768 -0.151 0.118 0.045 0.614 0.289 -1.111 -1.107 -0.338 -0.055 1.623 -1.905 0.594 0.940 -0.352 1.566 -1.538 1.001 -0.078 0.794 -0.979 0.087 -0.412 -0.583 1.107 -0.079 0.544 0.399 0.122 -0.062 2.103 0.127 0.878 -0.230 0.470 1.680 -1.166 -0.199 0.545 -0.477 -0.862 1.039 -0.860 -1.002 -0.099 1.296 -1.212 0.174 1.198 0.781 0.510 0.177
arrivée 1.566 -0.250 -0.138 0.709 1.099 -0.042 0.255 0.463 -0.797 0.885 -0.097 0.555 1.420 -0.490 -0.175 0.883 -0.772 -0.332 -0.754 -0.268 -0.044 0.310 2.014 -1.381 0.194 0.470 0.055 -0.800 1.173 -0.647 -0.487 0.330 -0.936 1.826 0.254 -0.010 1.171 -0.153 0.873 0.439 -0.257 0.668 -2.088 -0.029 -0.311 -1.396 1.735 -0.176 -1.074 -0.123 -3.059 0.350 1.268 0.233 -1.125 -2.307 0.250 0.540 0.597 -2.388 -0.541 0.446 0.902 -0.679 -0.516 -0.741 1.629 0.329 -0.816 -0.784 -0.084 0.135 1.453 -0.073 -0.637 -1.630 0.352 0.899 0.410 0.208 0.355 0.487 -1.892 0.468 -0.488 1.404 -1.364 0.204 -0.180 1.295 1.295 -0.635 -0.956 -1.716 0.422 -0.332 1.951 -1.209 0.903 0.012
bâtiment -0.376 -0.491 0.529 0.251 1.620 -1.348 -0.743 0.802 -0.020 0.485 -0.979 -0.902 -0.438 -0.066 0.353 -0.001 1.385 2.277 1.083 -2.668 -1.529 2.154 -0.594 0.733 0.177 0.844 0.063 0.043 -0.133 0.262 0.278 0.395 -0.553 1.032 0.833 -0.583 -0.836 0.080 0.249 0.423 1.596 0.605 0.424 -0.206 0.177 1.600 -1.716 0.813 1.159 -0.508 -1.101 -1.490 -0.943 0.005 1.097 0.899 -1.620 -0.446 -0.440 2.205 0.432 0.470 2.258 -0.028 -0.586 0.820 -0.373 -0.549 0.338 1.055 -0.394 -0.828 -0.040 -0.416 -0.761 -0.808 -0.197 0.591 0.488 0.436 0.433 0.910 1.468 -1.460 -1.135 0.366 -0.527 2.261 -0.313 1.016 -1.565 1.614 -0.422 0.203 -1.347 0.086 0.425 -0.222 -2.875 0.802
surtout -0.658 -0.068 0.266 3.303 0.269 -0.266 0.161 -0.222 -0.851 -0.792 0.867 1.090 1.540 -0.751 0.005 -0.384 -0.892 -1.134 -0.798 -2.044 -0.743 0.392 0.003 0.129 0.374 1.102 1.006 -1.216 0.780 -0.686 -0.885 0.368 0.292 -0.704 0.828 0.898 -0.404 1.282 -0.944 -0.219 0.877 -0.292 -1.087 -0.402 -1.952 -0.905 0.147 -0.407 -0.444 -0.280 0.062 1.277 -1.020 -2.256 -1.477 1.844 0.351 1.095 -0.470 -1.891 1.145 1.331 -0.850 1.377 0.318 0.007 0.939 -0.616 1.943 0.446 -0.351 1.461 -0.005 0.232 0.892 -0.159 -0.772 1.454 0.596 -0.648 -0.300 1.510 -0.674 -0.273 -0.151 -0.236 -0.152 -0.416 1.388 -1.956 1.565 0.398 -0.028 -0.792 -2.113 2.321 1.151 -0.889 -1.860 0.304
quand 0.094 -0.123 0.608 -0.487 -0.771 0.165 -1.195 0.502 -0.156 -0.228 1.391 0.686 0.633 -0.602 -0.564 -0.664 -0.088 -0.538 -2.185 -1.428 -0.545 -0.368 -0.355 -1.157 0.609 -1.452 0.410 1.179 0.668 -1.643 -0.784 -0.532 0.366 1.759 2.000 -0.058 -0.307 -0.038 0.226 -0.121 -1.665 0.365 0.300 -0.905 0.684 0.158 -0.471 0.995 -0.958 0.089 0.240 1.627 -0.234 0.703 0.563 -0.148 -0.002 -0.599 2.040 0.456 1.129 1.548 1.874 -0.587 0.000 1.381 0.403 1.188 -0.698 1.883 -0.726 1.022 -0.038 0.248 1.344 -0.332 0.703 2.218 0.029 0.368 -1.465 -0.863 -0.001 -0.958 -1.057 -0.966 -0.150 0.121 -0.441 -0.840 0.533 0.141 0.598 0.791 -0.264 0.481 0.346 -1.317 1.771 0.436
ce 0.848 1.492 1.840 -1.412 1.642 0.871 -0.557 1.400 -0.235 -0.553 -1.403 0.294 1.595 -0.417 0.325 -0.079 1.937 0.492 -0.163 0.765 1.224 1.128 0.203 0.716 -0.056 -0.309 -1.539 -1.160 1.521 0.231 0.027 -1.113 -0.247 -0.211 0.621 0.616 0.096 0.612 0.309 0.327 2.186 -1.690 -0.123 -0.796 -1.007 -0.263 -0.828 -0.692 0.722 0.018 0.133 0.854 1.057 -0.028 0.906 -0.555 0.211 -1.050 -0.160 2.347 1.071 -0.738 -0.223 0.863 0.977 0.257 -0.621 0.648 2.133 0.625 -0.702 0.510 -0.614 -0.704 0.284 1.027 -0.052 0.269 -0.542 -0.897 -0.081 0.423 -1.050 -0.026 1.199 1.430 0.911 -0.583 -1.278 -0.023 -1.694 0.221 -0.396 0.888 0.394 0.319 -0.893 0.226 -0.966 1.230
a 0.056 -1.096 -0.044 0.562 1.048 1.126 -0.738 1.011 -1.546 -1.535 0.060 0.893 1.000 0.788 2.467 0.751 1.566 -1.896 1.206 0.169 -0.119 -0.503 0.620 0.340 0.857 -1.173 0.807 -0.538 0.588 0.254 -0.537 -0.493 1.726 1.241 0.341 0.195 0.318 -1.096 -0.468 -0.443 -0.960 -0.522 -1.522 -0.636 0.885 -0.388 -1.591 1.655 0.301 0.105 -1.580 -0.253 1.148 -1.614 0.062 1.458 2.039 -1.058 0.902 0.953 -1.150 0.719 1.011 0.839 -1.781 -0.571 -0.764 0.031 -1.308 0.987 -2.122 1.070 1.124 -0.858 1.311 0.904 0.060 0.334 1.613 0.306 0.462 0.708 1.043 -1.544 -1.065 1.608 -1.409 -1.563 -0.645 -0.136 -0.361 -0.704 -0.961 1.773 -1.008 -0.622 0.332 0.285 -1.073 -1.511
été 1.177 0.094 -1.036 -0.257 -0.558 0.177 2.361 1.135 -0.880 0.803 0.348 0.221 0.752 -0.167 -1.144 0.220 -1.680 -0.278 -0.713 0.210 -0.503 0.071 0.635 1.638 1.568 -0.625 1.293 -0.467 -0.805 -1.142 -1.297 -0.792 0.536 2.713 0.298 0.340 -0.457 0.214 1.962 -1.471 0.757 0.733 -0.643 -0.190 -0.177 -0.439 -2.322 0.812 -0.514 -0.512 -0.571 0.908 0.507 0.714 0.016 -0.030 0.194 -1.291 0.100 -0.031 -0.523 1.797 -0.697 1.033 -0.155 -1.124 -0.824 0.239 0.760 -0.476 1.877 1.271 1.383 -0.826 -3.262 -0.168 1.088 0.505 -0.592 -0.258 -0.788 -1.596 -0.904 -1.439 0.024 0.674 -1.536 -1.401 0.265 -0.521 -0.759 -0.118 0.275 -0.106 -0.635 -0.907 -0.735 -0.906 1.138 0.740
construit -0.426 -0.389 -0.425 2.845 0.348 -0.363 -1.116 1.133 -1.001 -0.405 1.469 -0.901 -0.106 0.500 0.292 -0.273 2.273 1.659 -0.384 -1.089 1.054 0.678 -0.663 -0.170 0.150 0.205 0.075 -1.738 -2.082 -1.014 1.079 1.491 0.590 0.088 -0.781 1.495 0.057 -1.594 -0.368 -0.213 -1.230 -0.374 0.675 0.446 -0.721 -0.945 -0.362 -0.365 -1.139 0.214 -1.238 -1.386 0.210 0.902 -0.167 -0.112 -0.849 -0.056 -0.073 0.321 1.364 -0.085 -0.732 0.116 -0.290 1.550 1.377 -1.872 -0.804 0.631 0.106 -0.015 0.127 -0.982 -1.226 0.664 -1.638 -0.182 -1.394 1.748 1.188 0.676 0.427 -2.440 -0.883 0.354 -1.099 1.313 -2.056 0.846 0.169 -1.535 0.906 -0.895 0.321 -0.971 0.128 0.951 -0.071 -0.066
gréé 0.091 1.173 -0.295 1.193 1.239 1.028 -2.317 0.962 -1.056 0.343 0.778 1.020 -0.873 0.595 2.219 0.372 -0.954 -1.670 0.022 -1.154 -2.426 -0.702 0.513 -0.207 1.206 -1.240 0.048 -0.610 0.511 -1.312 -1.668 -0.055 -0.272 -0.505 -1.319 -1.413 -0.148 1.195 1.595 -0.031 -0.174 -1.421 -1.511 -2.079 0.332 -0.513 -2.420 1.546 0.564 0.093 -0.674 0.227 0.631 -0.024 -0.400 1.994 -0.173 -0.076 -0.666 0.070 0.340 0.758 -1.086 0.807 0.642 -0.164 -0.390 1.396 1.122 -1.315 0.461 1.450 0.607 0.910 0.165 -0.254 -0.677 -0.181 -0.321 -2.369 0.119 -1.101 -0.063 -1.095 0.025 -1.063 2.146 -0.402 0.249 -0.323 0.103 -0.787 1.054 1.147 -0.156 -0.806 -0.604 0.465 1.426 1.513
arrimé 0.319 -1.344 -0.173 0.684 -0.179 1.933 0.709 1.511 -0.502 -1.464 -0.419 0.241 -1.861 0.107 0.208 0.308 1.109 -3.366 -0.492 0.404 1.195 1.369 1.373 0.127 2.068 0.647 -0.346 0.655 1.769 -0.132 0.811 2.536 -0.806 0.145 0.013 -0.744 0.289 -1.331 -0.760 -1.769 0.265 -0.319 0.323 0.821 -0.145 0.924 0.845 1.641 1.219 0.347 0.252 -2.375 0.496 0.047 -0.048 -1.472 -0.620 -1.662 -2.107 0.496 -0.649 1.186 -0.510 -0.492 -1.431 -1.684 0.778 1.687 -1.445 -0.346 -1.570 0.881 0.074 0.455 -0.640 -0.212 -1.173 -0.966 0.625 -0.848 0.339 0.069 -1.237 0.719 0.463 1.061 -0.367 -1.838 -0.261 -0.201 -1.343 -3.412 -0.067 0.629 0.287 0.818 0.154 1.173 1.062 0.700
sur -0.300 0.619 -0.123 -0.791 1.010 -1.078 0.817 1.217 1.192 0.356 -0.763 -1.349 -0.062 0.429 -0.585 2.427 -0.401 -0.687 -0.125 0.714 0.891 0.777 1.080 2.002 0.146 -0.458 0.945 -0.089 0.371 -0.737 -3.823 -1.460 -0.179 0.839 -1.531 0.060 -0.114 0.945 0.641 -1.908 1.939 -0.870 -2.007 -1.655 -0.627 0.278 -1.874 1.161 -0.994 1.149 -0.219 -0.212 -1.285 -0.686 -0.639 -0.329 0.680 -0.237 -0.790 2.305 -0.016 -1.212 -0.008 0.463 0.098 -1.821 0.158 0.214 0.694 0.143 0.635 0.116 -1.622 0.224 1.039 -0.838 0.241 0.175 0.466 -0.146 -0.159 0.796 -0.341 -0.114 0.950 2.557 1.187 0.288 -0.917 0.586 -1.938 0.022 -1.209 -0.617 0.892 0.821 -0.515 -0.627 -1.980 0.388
les 0.380 -0.372 -0.236 2.081 -1.034 1.577 -1.632 0.547 0.443 0.761 1.356 -1.084 0.339 -0.103 0.666 2.496 0.403 1.031 1.533 -0.020 0.650 1.053 1.465 -0.148 -0.200 0.017 -0.140 -0.676 -1.363 0.147 -1.524 1.441 -0.371 -0.583 -0.186 0.586 -1.355 0.439 0.987 -1.210 -1.073 0.178 -1.098 0.563 2.647 0.231 -0.135 0.196 0.825 1.364 -1.611 1.542 -0.150 0.123 0.663 -0.144 -0.709 -0.156 0.494 -0.252 -0.394 1.020 0.405 -0.594 -0.139 -0.005 0.082 0.585 -0.131 -2.113 -0.208 1.666 0.649 -0.239 0.982 0.691 -0.907 1.261 1.603 1.412 -0.324 0.694 -0.441 -0.388 -0.237 0.025 0.422 1.027 0.177 -0.380 -0.270 -0.594 -0.739 -0.042 0.114 0.832 1.377 0.890 1.024 1.326
chantiers -0.044 -0.611 0.693 -1.118 -0.443 -2.834 0.783 1.372 -0.987 0.396 0.319 0.965 -0.971 1.066 1.096 -0.245 0.312 0.714 -1.077 1.640 1.189 -1.661 1.542 0.148 -0.412 -3.416 1.627 -1.233 0.648 -0.282 -0.322 0.125 -0.949 -2.048 -0.121 -0.042 0.041 0.814 1.203 0.169 0.532 1.736 0.676 -0.393 -0.031 -0.498 -1.260 -0.544 0.660 -1.031 -1.289 1.660 -0.530 -0.704 0.855 1.235 0.117 0.568 0.322 0.104 1.006 0.466 0.806 -0.995 -0.156 1.342 -0.434 -1.274 -1.773 1.110 0.176 0.876 0.975 -0.155 -0.019 -1.704 -0.024 -0.099 0.221 1.287 0.759 -1.182 0.623 -1.849 0.056 1.704 0.541 0.305 -0.296 -0.081 0.046 1.676 0.486 -0.921 0.242 1.276 0.124 -1.818 -1.669 1.787
vieille -0.200 2.243 -0.158 0.668 -0.886 -1.164 1.200 1.730 -0.578 1.310 0.624 -1.048 0.107 0.284 0.958 0.008 0.975 0.796 0.555 -0.748 0.574 -1.288 0.130 0.896 -0.668 -1.101 1.008 -0.604 -0.003 0.964 -1.178 -0.605 -0.662 1.269 -1.022 -2.439 0.443 0.254 -0.234 -0.035 -0.639 1.069 -1.451 0.198 -3.252 0.168 -0.536 0.342 0.508 -0.695 0.418 1.872 0.563 1.127 -0.169 -0.630 0.373 -1.466 -0.554 0.278 -0.654 1.884 -0.820 0.005 -0.773 -1.140 0.078 0.876 -0.500 0.577 0.650 0.756 1.755 0.065 1.989 -1.042 0.693 -0.816 -1.292 -0.714 -1.115 -1.280 -0.025 -0.076 0.383 0.543 -0.230 -1.016 -2.197 -0.983 -1.031 0.687 -1.406 -0.262 0.022 0.863 -2.133 -1.093 -0.381 0.207
phocée 0.344 -0.575 -1.941 0.438 0.327 0.081 0.014 -1.332 0.352 0.797 1.967 1.280 0.499 -0.101 0.708 0.761 0.592 -0.764 -0.549 0.210 0.593 1.357 1.597 -0.902 -0.566 0.586 0.311 -1.266 0.279 -0.990 -1.495 1.302 0.427 1.482 -1.791 -0.888 0.996 0.712 0.055 -0.812 -0.075 -1.659 -0.059 -0.415 0.395 -0.641 0.705 0.588 -0.134 -0.820 0.943 1.244 -0.269 -0.396 -0.694 0.602 0.941 -0.677 -0.783 0.317 -1.416 -0.990 1.318 -0.576 -0.459 0.085 -0.155 -0.184 0.057 0.259 -3.078 -2.039 1.133 0.982 -1.112 -0.559 1.947 -1.048 0.965 -0.667 0.255 0.132 -0.672 0.113 0.378 0.244 1.065 0.443 -0.172 0.149 -0.674 0.694 -0.254 -0.713 1.394 -0.668 -0.419 -0.465 1.733 0.236
appartient -0.049 3.305 -0.323 1.488 0.060 0.110 1.323 -0.940 -1.609 -1.312 0.617 0.529 0.987 -1.067 0.151 -1.270 -0.224 0.132 0.186 0.721 0.264 0.626 0.859 1.417 0.904 0.462 0.571 -1.335 1.783 0.245 -0.140 1.046 0.002 -2.334 0.877 -0.539 -0.256 -0.907 1.661 -0.121 0.191 0.215 -1.066 0.260 -1.812 0.795 -1.319 2.210 1.101 -0.401 -1.091 -0.085 -0.015 -0.681 -0.875 0.595 -0.013 0.015 -0.335 0.342 -1.715 0.032 0.994 1.153 -0.998 0.465 1.035 -0.424 0.784 1.839 -0.436 0.264 0.992 -0.311 0.916 0.185 1.237 0.080 -0.121 -0.977 -2.110 -0.045 -0.265 1.164 -0.673 0.423 -0.278 -0.443 1.035 0.746 0.595 -0.244 2.005 -0.277 0.045 -0.288 0.055 0.621 -0.472 0.288
armateur 0.392 -0.624 -2.071 -0.764 0.474 1.214 -0.064 -0.204 -0.737 -1.627 -0.849 0.883 1.827 -1.357 -2.197 -0.736 -0.661 0.046 0.074 0.114 -1.620 0.166 1.173 -0.043 1.456 -0.096 0.590 0.151 0.181 -1.387 0.960 -0.512 -0.737 -0.670 -0.778 0.291 -1.001 -0.080 0.756 -2.232 0.001 0.499 1.250 0.385 -1.029 -0.840 1.007 0.395 -0.280 -0.235 -0.060 -0.410 -0.927 -1.933 -0.004 -1.994 1.562 0.288 0.647 0.210 -0.507 1.010 0.694 2.491 -0.010 0.473 0.726 -0.365 0.719 0.477 -1.577 0.985 0.316 -2.185 -0.529 -0.125 0.045 0.351 -0.349 -0.226 1.050 -0.136 -1.016 -1.156 0.134 1.723 -0.838 0.787 0.979 0.765 0.890 -1.642 -0.233 -0.027 1.780 -0.938 -0.208 0.398 1.181 -0.049
ville 0.713 0.011 2.455 -0.545 0.486 0.772 -0.568 -0.432 -0.112 -2.167 -0.459 0.565 -0.145 0.480 0.145 0.765 -0.408 0.265 0.601 0.694 0.671 0.832 -0.863 -1.233 -1.133 -0.510 -1.210 -0.879 0.012 -0.305 -0.521 -0.157 -1.048 2.364 -1.092 0.493 0.142 0.441 1.740 -1.931 -0.028 0.592 -0.462 1.245 -0.513 1.056 0.789 0.201 1.396 -0.536 0.632 -0.765 1.110 1.575 0.791 -0.247 -0.150 -0.063 -0.184 0.577 -0.389 1.487 0.856 0.166 -1.123 0.457 -0.242 0.703 -0.985 1.833 0.274 -0.574 0.087 0.752 -0.363 -1.594 1.792 0.975 -0.190 1.080 0.511 1.479 0.624 -1.293 1.141 -0.469 -0.661 0.344 0.869 -0.327 -0.323 0.922 0.585 -0.323 -1.165 -0.529 -0.315 1.366 -0.416 -0.068
cependant -2.281 2.260 0.744 0.098 -0.571 -1.417 -0.776 -0.308 -0.683 -0.288 0.935 -4.308 -0.116 0.160 -0.903 -0.466 -0.467 -0.197 -1.890 0.385 1.402 1.236 1.041 0.182 -1.793 1.639 -1.143 -1.971 -0.925 -0.107 0.394 -0.551 -0.194 0.288 0.870 -0.467 0.684 -0.148 3.021 -1.365 0.496 0.523 -1.037 0.915 0.149 0.965 0.896 0.789 0.111 -0.304 -1.439 0.928 -0.608 -0.900 1.276 0.965 0.704 1.097 -0.209 1.293 -1.964 0.914 -0.656 0.451 0.712 2.235 0.778 0.856 -0.844 3.133 -1.907 0.662 0.149 0.771 0.093 -1.136 -0.638 0.378 1.221 -1.480 0.037 -1.169 1.231 -0.042 -0.453 -0.146 -0.855 -0.827 -1.658 0.413 -1.134 -1.517 -1.462 1.883 0.100 -0.206 0.421 0.838 -0.266 0.542
avançait -0.067 0.622 -0.591 -0.351 -0.483 -0.907 1.253 -0.535 -1.391 -0.173 0.472 0.801 1.736 1.189 -0.035 1.167 0.774 -0.131 -0.124 -0.554 1.210 -1.428 0.164 -0.552 0.796 -0.218 -0.675 -1.525 -0.151 -0.280 1.045 -0.378 -2.042 -0.939 0.022 -0.492 1.806 -0.467 1.064 -1.834 -0.790 -0.164 0.395 0.102 -2.807 -0.502 0.143 0.767 1.320 1.366 -0.652 0.306 -0.229 0.115 0.856 0.245 -0.963 -0.314 0.230 1.628 0.049 -0.653 -2.236 0.265 -1.397 -0.067 1.176 0.863 -0.593 1.495 -0.324 -0.856 -1.239 -1.503 0.004 -0.395 -0.174 0.487 0.549 0.895 -0.211 1.659 -0.455 0.384 0.084 0.789 0.209 -0.354 -0.703 0.027 0.613 0.629 -0.696 1.124 -0.298 0.548 1.276 0.120 0.123 0.170
il -1.350 -1.075 -0.832 1.917 -0.076 0.365 -0.219 1.348 -1.030 0.353 0.648 -1.198 -1.045 -1.733 0.423 -0.543 1.205 0.027 -1.792 1.176 -0.508 1.634 0.605 -1.153 0.081 -0.229 0.127 -0.692 0.558 1.102 0.170 0.517 -0.358 -0.133 -1.153 -0.976 -0.096 0.416 0.868 0.090 1.145 -0.689 -1.532 -0.428 -0.557 -1.636 0.376 1.267 0.209 -0.282 -1.209 -1.158 -0.222 -0.946 -0.332 -2.415 -0.308 -1.306 -0.710 -1.438 -0.548 -1.665 2.195 -0.860 -0.230 -0.415 1.174 1.446 -1.300 -1.322 -0.640 1.194 1.146 -0.830 0.630 -0.278 -0.732 -0.029 -2.012 -2.545 -0.112 -0.830 1.299 -0.040 -0.433 0.287 0.605 -1.820 -0.213 0.105 -0.947 -0.029 0.392 -0.567 0.799 -0.436 2.947 0.131 1.563 -0.885
avait 0.802 -2.882 -0.334 2.244 -0.221 -1.333 -0.078 0.623 -0.192 0.133 1.576 -0.385 -0.916 0.732 0.500 0.047 0.795 0.644 0.373 -1.235 0.525 0.586 -0.804 0.808 0.668 -0.162 -0.447 -0.488 -1.097 0.089 0.303 -0.251 0.198 -0.213 -0.376 1.523 -0.352 -0.757 1.534 0.397 -0.548 0.114 0.365 0.574 0.667 -2.016 0.424 0.384 -2.462 -0.123 0.321 0.361 1.043 0.374 1.570 -1.015 0.270 -0.918 0.957 -0.580 -0.116 0.713 0.692 -0.867 -1.205 -0.042 0.151 -0.511 -0.326 0.491 -0.661 -1.467 0.229 1.375 -0.256 1.124 -0.543 -0.623 2.646 0.546 -0.468 -0.469 -0.409 -0.148 0.838 0.101 -0.395 0.586 -1.388 -0.280 -0.066 0.086 0.080 0.984 -1.034 0.955 -0.875 0.671 0.988 0.842
heureusement -2.548 1.249 -1.210 0.112 -0.473 -0.622 -1.395 -0.956 -1.852 0.442 0.777 -0.733 0.618 -0.261 -0.343 0.718 -0.419 -1.338 0.981 -1.588 -2.514 0.217 1.732 0.158 0.386 -0.039 1.787 -1.382 0.538 -0.220 -1.946 1.363 1.401 -0.687 -0.523 1.503 0.147 1.165 0.970 1.447 -0.868 -2.019 0.099 -1.962 0.045 -2.230 -0.092 0.311 -0.489 0.271 1.623 0.305 0.506 0.035 0.872 -0.233 0.042 0.911 0.764 -0.508 -0.153 -0.176 0.363 0.187 0.627 1.446 1.651 0.470 1.625 0.116 -0.797 -0.179 1.598 0.351 0.824 1.970 -0.607 0.125 0.025 -0.507 0.513 -0.571 -0.272 -0.991 -0.463 -0.309 0.775 -0.968 0.763 -1.163 -0.805 -1.902 0.172 1.133 1.011 0.282 -1.996 -1.207 -1.494 1.682
franchi 0.411 0.240 0.583 -1.032 1.258 1.173 0.395 0.419 0.142 -0.922 0.173 1.417 1.697 1.221 -0.677 1.729 -0.739 -0.541 -1.555 -1.160 0.340 1.133 -0.368 1.326 0.347 -0.844 0.770 -0.649 0.164 0.784 0.292 1.089 1.536 0.278 1.330 -1.327 1.959 -0.580 1.825 -0.942 0.670 -0.347 -0.055 0.658 0.018 -0.481 -0.158 1.276 -0.730 -0.545 0.601 0.422 -1.179 -0.482 0.600 0.719 1.306 -0.792 -0.391 -0.814 0.039 -0.324 0.150 -1.030 -0.552 -0.071 1.218 1.315 0.405 -1.019 -1.097 -0.626 0.168 0.133 0.201 -0.672 2.370 -1.146 -0.706 -0.261 0.102 -1.325 -0.440 0.975 -0.635 0.396 -0.932 0.268 0.254 0.379 -0.856 -0.632 0.473 0.588 0.687 -0.304 0.246 1.395 -0.805 1.478
détroit 1.003 0.911 0.024 -0.781 1.022 1.884 -0.007 0.600 -1.052 0.563 0.936 -0.876 -2.897 -0.167 3.155 0.437 -0.662 0.001 -1.421 0.676 -0.399 -0.635 -0.720 0.582 0.486 -0.235 -0.463 -0.101 1.638 0.824 -0.161 0.246 -1.577 -0.989 -0.920 0.872 -1.109 0.276 -1.460 -1.487 1.492 0.512 0.243 -0.644 -1.081 -0.946 0.169 -1.867 1.081 0.387 -1.793 0.504 -0.028 1.339 -0.939 -0.506 0.378 -0.468 -1.481 0.812 -2.229 1.529 0.002 0.009 -1.262 -0.313 0.584 -1.473 1.416 0.405 -3.105 -1.504 0.189 0.414 1.129 0.250 -1.928 -1.238 -0.808 0.202 -0.351 0.112 1.267 -2.482 0.775 -0.337 -1.360 0.837 0.116 0.859 1.370 -1.283 0.174 -0.342 -0.903 -0.893 0.345 -0.130 1.306 -0.112
quelque -2.337 -0.596 -0.775 -0.096 0.571 0.354 -1.089 -0.348 -0.433 -1.684 -2.405 -0.976 1.198 0.370 -0.659 -0.713 -1.335 -0.806 0.748 -0.273 -0.275 1.097 0.772 0.000 0.300 0.600 -1.067 -1.128 0.998 0.849 1.025 0.861 -0.388 0.491 -0.401 -1.488 1.645 -0.045 -0.900 -0.112 -1.386 -0.584 -1.207 -0.021 -0.609 -1.776 -0.399 -0.650 1.091 0.283 -1.454 0.621 0.500 0.033 -0.366 -0.415 -1.759 -0.848 0.007 1.319 -0.704 -0.229 -0.523 -0.717 -1.183 1.069 0.986 -0.300 0.612 0.010 1.175 0.713 -0.680 -1.256 -0.582 0.931 0.795 -0.900 -0.630 1.231 -0.703 1.097 1.486 -0.156 0.339 0.096 -1.083 0.880 -0.014 -0.876 -0.622 -0.336 0.179 0.809 1.049 0.065 -0.683 -2.183 -1.011 -0.011
secousse 1.324 0.012 -0.105 0.747 0.325 1.225 -0.217 -0.845 -0.494 -1.187 -0.361 -0.128 0.413 -0.628 0.678 -0.284 -0.376 -1.269 -1.108 -0.389 -0.932 0.803 0.591 -0.315 -0.849 0.348 0.043 -1.774 1.750 -1.924 0.182 0.193 -0.024 -0.410 -1.107 0.759 0.240 0.737 0.787 -0.051 0.131 1.733 -0.944 -0.172 -0.748 0.115 -0.038 0.715 -0.380 1.101 -0.178 -0.393 0.300 1.054 0.406 -0.435 0.458 -0.830 0.048 1.140 -1.432 1.249 -0.936 -0.326 0.367 0.191 1.590 -0.449 -0.866 -1.505 -1.341 0.593 -0.372 -0.354 0.019 0.443 0.167 -1.875 -0.952 -1.347 1.366 0.016 0.368 -1.630 -0.400 0.282 0.516 0.695 0.628 0.767 -1.261 -0.281 0.233 0.590 1.170 -1.006 1.276 -0.341 -0.700 0.190
volcanique -0.278 0.770 -0.114 -1.439 0.185 -1.350 0.830 -0.891 -1.032 -1.055 0.236 -0.653 -0.598 0.603 -0.691 0.133 0.694 1.053 0.203 -0.923 1.063 1.286 0.681 -1.821 1.268 -0.845 0.587 -0.365 1.867 1.516 0.414 -1.647 1.911 -0.552 0.167 0.675 -0.018 -1.492 1.757 0.215 -0.131 -1.478 -0.293 -1.343 -1.615 -1.348 0.262 0.761 0.259 -0.297 0.560 -0.627 0.520 -0.687 -0.401 1.002 -1.127 0.330 0.886 -1.516 -0.322 -1.021 0.398 -0.726 -0.240 -0.557 -0.347 0.907 -2.097 0.592 -0.455 0.827 0.396 0.867 -0.213 -0.205 1.543 0.198 0.263 1.111 0.538 -0.009 0.678 -1.013 0.013 1.410 -0.964 1.813 -0.166 -0.952 -2.022 1.305 0.476 1.298 -0.259 -0.331 1.458 0.612 0.554 1.040
creusé 1.278 1.198 1.140 -1.458 1.015 -0.264 -0.482 0.034 0.111 -0.681 -0.317 -1.154 0.149 0.696 1.179 1.009 0.312 0.392 0.461 -1.410 0.108 1.914 -0.065 1.124 -1.679 1.377 -2.646 -0.611 0.476 -0.177 -0.388 -0.526 -1.492 0.779 -0.720 -1.656 0.110 -0.095 -0.683 -0.320 2.320 0.235 -1.089 -1.498 0.985 -0.849 -1.394 1.338 0.353 1.067 0.277 1.902 -1.139 -0.054 0.105 -1.609 0.989 -2.820 -0.495 -0.958 0.257 1.463 -2.124 -0.787 -0.265 -1.690 -0.033 1.546 0.741 3.100 0.313 0.649 0.300 0.794 0.219 0.703 -2.328 1.299 0.897 1.301 0.150 -0.885 0.155 1.515 -1.116 -0.646 -0.567 -1.390 -1.802 -0.472 -0.460 -1.328 0.851 -1.183 -1.581 0.228 1.110 0.771 -0.405 -1.025
calasareigne -1.184 1.051 -2.293 -0.165 -0.681 -0.765 -0.630 -0.926 0.267 -1.261 1.235 -0.892 -0.890 0.666 0.859 0.966 1.131 0.075 -1.673 -0.001 -1.067 -1.782 0.881 1.304 1.543 -0.409 0.395 0.506 0.565 0.594 2.184 -1.454 -1.531 1.177 -0.162 -0.306 -0.316 0.138 0.777 -1.915 0.602 -0.516 1.267 0.857 -1.283 -0.722 -0.549 0.590 -0.022 0.886 -0.408 1.196 -0.159 0.205 -0.823 1.282 -0.312 0.408 0.013 0.964 -1.200 0.157 1.529 0.030 -0.958 -0.170 -0.327 -0.824 0.154 -0.091 -0.499 0.028 -0.554 -0.776 -0.214 -2.050 -0.788 0.334 0.358 0.682 -0.361 -0.090 -0.455 -1.365 -0.950 -0.867 0.813 -0.417 -0.563 -0.698 -0.828 -0.758 -2.091 -0.372 0.704 -0.246 -1.436 0.292 2.196 -1.355
jaros 0.468 -2.177 -0.425 -0.026 1.577 -0.456 0.803 -0.029 0.151 0.252 1.349 -0.922 0.371 -0.799 0.283 0.950 0.022 -1.313 0.985 -0.707 1.094 -0.770 -0.135 1.241 -1.230 0.654 0.661 -0.391 2.076 -0.322 0.736 -1.055 -0.721 0.696 -0.077 0.511 -1.206 -0.030 0.540 -0.961 0.700 2.940 -1.759 0.558 -1.829 0.502 -0.746 -0.335 -2.122 0.648 -0.535 0.813 0.883 0.878 -0.520 -0.131 -0.446 -0.502 -0.530 -0.060 1.449 -0.086 1.502 0.263 -0.964 0.264 -0.686 0.097 -1.118 0.695 -0.085 -0.525 0.886 0.031 -1.268 -0.331 0.293 0.096 0.776 0.700 -0.161 -0.077 -0.274 -0.864 -0.927 0.019 -0.718 -0.851 -1.775 -1.180 -0.162 -1.423 -0.349 -0.306 0.115 0.224 -0.672 0.126 -1.013 -0.997
reine -2.729 -0.786 0.547 1.231 0.498 -0.678 -1.206 -0.141 -0.510 -0.313 0.773 1.086 -0.478 -1.032 3.123 0.776 -1.292 -0.364 -0.666 -2.020 0.724 -1.571 1.384 -2.172 0.173 -1.717 0.838 0.265 2.764 0.272 0.263 -0.651 1.342 -0.025 -0.731 -0.423 0.500 -0.576 0.669 0.063 0.662 1.478 0.549 0.378 0.326 0.972 0.775 0.376 -0.115 -0.629 -1.257 -0.045 0.445 -0.380 1.090 0.096 -0.176 1.753 0.933 0.460 -0.397 -0.414 0.757 0.334 0.189 -0.724 1.599 0.427 -1.326 0.529 -0.698 0.012 0.450 -0.884 -1.548 -1.569 -1.251 -1.764 -0.955 -0.188 -1.495 0.427 0.211 -0.447 0.353 1.180 -0.086 -1.240 -1.279 -0.920 -0.602 0.501 -0.594 -1.235 -0.066 -0.618 -0.107 0.185 -0.098 1.590
homme -0.060 1.845 -0.525 0.055 -0.340 0.118 -0.804 -0.399 -0.409 1.069 -1.683 -2.877 -0.565 -0.444 1.736 0.080 0.968 -1.687 0.385 1.845 0.661 0.318 -1.518 1.438 -1.132 0.782 0.553 -0.152 -0.628 -1.149 -0.307 0.429 -0.221 -0.872 -0.673 -1.026 1.683 0.766 -1.013 -1.438 2.051 -0.173 -1.238 1.281 -2.184 -1.833 -0.857 0.887 -1.099 -1.267 1.878 0.725 0.235 0.102 0.388 1.594 -0.878 0.325 -0.971 0.478 -0.259 0.576 -0.167 1.391 -0.729 1.851 1.529 0.425 -1.204 -1.734 -2.401 0.292 -0.369 -0.075 2.569 0.853 0.001 0.260 0.517 -0.957 -0.620 -1.590 -1.536 -0.185 0.144 -0.092 -0.786 -0.899 -2.300 -0.710 -0.559 1.018 0.444 1.113 0.816 -0.388 -1.639 0.191 -0.285 -0.197
roi 0.823 0.936 0.469 0.265 0.726 0.783 -0.702 0.355 -0.700 -0.732 -0.790 -0.449 -0.127 1.047 1.417 0.650 1.607 -0.785 -2.503 -1.282 -1.013 0.776 1.366 -0.132 -0.588 0.387 1.069 -0.097 0.029 -1.703 -0.444 0.193 0.711 0.792 -0.087 0.412 0.877 -0.592 -1.176 -1.535 0.028 -0.315 -1.003 0.730 -0.882 0.888 0.220 0.680 0.172 -0.157 -0.840 1.332 -2.304 1.299 -0.082 1.286 -0.540 -0.306 -1.212 -1.097 0.012 -0.623 -0.117 0.274 -1.469 0.078 0.448 -0.262 -0.063 0.332 -0.209 -1.060 0.260 -0.949 -0.255 -1.176 -1.335 1.128 -1.366 -0.648 -1.835 1.094 0.247 -0.506 -0.034 0.560 -1.232 -0.798 1.210 -1.412 -0.038 -0.123 -1.205 -1.084 0.296 0.364 1.290 -0.858 1.795 -1.017
femme 0.193 -2.089 -0.094 1.108 1.283 -0.396 -0.910 -0.913 -1.578 0.382 0.095 1.033 1.104 0.298 -0.897 0.089 0.896 0.491 1.587 0.296 -0.971 0.901 -0.957 -0.526 -0.518 1.412 0.084 -1.334 0.746 -1.134 2.072 0.452 0.610 0.542 0.207 1.165 -0.302 -0.559 2.454 0.374 0.809 0.649 -1.564 -0.145 0.326 -0.136 -0.072 0.984 -0.821 -0.378 -1.790 -0.546 0.692 -2.249 -1.511 0.029 -0.379 -1.609 -0.090 0.325 0.216 -0.121 -0.207 2.196 0.304 -0.888 -0.111 2.936 -0.902 3.043 -0.276 0.765 0.017 -0.946 1.794 0.026 1.024 0.459 0.057 0.547 1.302 -1.273 0.227 -0.615 -1.027 0.085 -0.019 1.988 0.658 -0.032 -0.177 -2.580 0.907 0.496 -0.291 1.083 0.708 -0.354 -0.356 0.676
huniers 2.114 0.487 -1.859 0.756 -0.127 1.364 -0.864 -0.912 -0.475 -1.619 -0.172 0.144 2.543 -0.303 -0.290 1.279 -0.004 -2.810 1.076 2.108 0.345 -0.367 -0.366 0.481 -0.047 -0.484 0.102 -1.569 0.832 -0.522 -0.141 -1.269 -1.129 0.442 0.256 0.005 -2.046 -1.015 -0.410 0.356 0.487 0.915 -0.010 -0.995 0.016 0.841 0.075 1.497 1.550 -0.041 1.108 -1.090 -1.144 -1.605 -0.450 0.269 -1.024 -0.077 1.373 0.595 -0.869 0.779 1.116 -1.142 0.760 -0.147 -0.694 1.879 1.125 0.661 -1.009 -1.161 0.594 0.288 -0.305 -1.364 0.186 0.380 0.286 -0.219 0.005 -0.974 -1.251 -0.806 -0.911 -0.519 0.673 0.444 -2.060 0.985 1.207 0.025 -0.528 1.224 0.689 0.599 -0.325 -0.118 1.410 0.826
son 0.716 0.753 0.181 2.856 0.035 0.802 0.001 -1.993 0.793 0.644 0.015 -0.282 0.193 -0.719 0.169 0.365 -0.811 -1.156 -0.283 -2.090 -1.183 -0.096 1.246 1.025 0.196 0.594 0.161 -1.601 -0.179 -0.279 0.997 -0.323 -0.161 0.507 -1.868 -0.071 0.258 -0.784 1.458 0.228 0.553 -0.280 0.438 -0.191 -0.490 0.972 -0.065 -0.113 0.264 -1.471 -2.298 -0.238 0.622 -0.388 -2.213 -0.554 -1.458 0.773 0.446 -1.211 -1.490 0.426 -0.352 0.281 0.179 1.516 -0.751 0.065 -1.873 -1.330 -0.434 -0.900 -0.787 -0.185 1.566 -0.526 0.292 1.409 0.248 -0.686 -0.942 -0.587 0.589 -0.406 -0.436 -0.805 0.411 -0.865 -0.304 -0.347 0.827 -1.922 -2.299 1.976 -0.394 0.100 1.132 -0.392 -0.313 0.295
grand -0.107 0.413 -0.788 0.852 0.003 0.336 1.130 1.419 -0.955 -0.416 0.068 -0.135 1.992 0.527 -2.513 -0.019 -0.887 1.586 0.469 0.203 1.990 0.233 0.078 0.426 1.136 -0.186 -0.389 0.044 -0.885 2.346 0.461 -0.610 -2.363 0.358 2.341 0.617 1.306 0.633 -1.428 -0.665 0.884 -0.686 1.034 -0.808 -2.312 -2.640 0.166 1.528 -1.004 1.145 -1.512 0.110 1.935 -0.401 1.337 -0.684 2.169 -1.510 2.126 0.655 -0.517 0.376 0.108 1.093 -0.545 -0.656 0.642 1.006 -0.836 -0.048 -0.580 -0.198 -1.428 -1.913 -0.961 -0.977 -0.914 -1.431 1.386 -0.461 0.672 -0.252 0.342 0.390 -0.274 1.624 -0.522 0.960 -2.032 -1.004 -1.253 -1.685 -0.431 -0.397 0.361 0.927 -0.774 1.267 -1.410 0.789
foc -0.305 0.998 1.361 0.708 0.048 -0.600 -0.860 -1.041 0.522 0.060 0.103 1.208 0.433 -2.215 -0.419 -0.551 0.019 -2.035 0.450 -0.651 -0.367 -0.007 -0.416 -0.798 0.116 -2.332 -0.826 1.019 1.206 0.346 -1.436 -0.432 1.220 -0.744 -2.443 -0.593 -0.816 -0.410 -0.412 -0.906 1.653 -1.061 0.644 -0.048 0.995 -0.765 -1.033 0.846 0.316 1.164 1.096 -0.733 0.715 1.833 1.721 0.275 1.078 -0.552 -0.330 -1.031 -0.399 0.423 0.497 1.878 1.982 -0.267 -0.086 -0.040 -0.560 1.487 -0.792 -1.124 0.018 0.702 1.004 0.835 0.110 -0.306 0.436 0.926 0.593 0.466 -0.341 -1.898 -0.705 -1.750 -1.256 1.808 0.010 -0.272 -0.407 0.123 -1.291 -0.129 -0.207 0.764 1.236 0.124 0.269 -0.428
sa -0.883 0.282 -0.767 -0.303 -1.094 -0.342 -1.824 0.533 -1.130 -1.261 0.278 0.672 -1.237 -0.918 0.365 -0.035 1.068 1.066 0.764 -0.648 0.922 0.620 -0.210 -0.901 -0.517 -1.239 0.520 0.864 0.492 -1.386 1.177 0.479 -1.144 1.488 1.089 -0.357 -1.357 -0.545 0.929 -0.383 -0.104 -0.058 0.524 -0.011 0.332 -1.023 -2.562 -0.178 0.820 -0.572 -1.096 0.668 0.777 0.504 -1.004 -1.194 -0.844 0.189 1.376 0.301 -0.197 1.369 -0.567 0.500 0.484 -0.988 0.113 0.302 -1.008 0.283 -0.464 0.351 1.079 1.484 -0.443 0.862 -0.199 1.047 -1.045 0.413 -1.200 0.207 -0.159 -0.611 -0.520 0.930 0.017 0.567 0.545 -0.542 -0.895 0.189 2.450 1.323 -0.674 -0.379 1.566 0.661 1.986 -0.102
brigantine 0.937 -0.608 -0.680 0.901 0.583 1.110 2.543 1.022 0.228 -0.333 -0.531 -0.306 2.872 -1.646 0.137 -1.218 -1.731 -0.564 2.420 0.140 1.022 1.358 -0.254 0.922 0.761 -0.113 0.233 0.197 2.017 0.227 -0.256 0.358 -0.048 1.163 -1.942 -1.048 0.657 -1.349 -1.371 -1.778 1.611 0.689 -0.442 0.914 -2.012 0.061 -0.290 0.756 -1.187 -0.355 0.218 -2.364 1.879 -1.603 0.987 -2.439 -0.704 1.036 -0.116 1.008 0.245 0.284 -0.418 0.401 -0.710 2.204 0.340 0.279 -1.412 -0.749 -0.738 -0.376 -1.728 -0.517 1.205 -1.512 1.245 1.250 -0.132 0.887 0.202 -0.176 -0.598 -0.080 0.021 -1.035 0.002 0.380 -0.688 0.821 -1.540 -1.466 -1.699 -0.314 -0.229 -1.017 1.535 0.798 0.160 0.143
mais 1.286 0.392 -0.765 0.305 0.836 0.431 0.327 0.051 0.107 -1.205 -0.342 0.914 1.926 0.833 0.852 -0.382 -0.598 2.183 -0.494 -0.725 -0.150 1.039 0.668 0.010 0.545 -0.487 -0.849 0.430 0.042 -0.132 0.866 -0.650 -0.482 2.370 -0.804 -0.027 -0.792 1.064 0.126 -1.024 0.347 -0.276 0.662 0.813 -1.838 0.613 -0.383 1.525 1.507 0.657 0.779 -0.388 0.966 -0.344 0.241 -0.864 -0.127 -0.508 0.982 1.102 0.491 0.627 -1.231 -0.577 0.912 -1.512 -0.559 -0.945 -1.177 0.291 -2.067 -3.385 1.396 -0.115 2.429 1.200 -0.040 -0.166 1.048 -0.102 -0.995 -0.224 0.769 0.162 -0.700 0.672 -1.322 1.334 -0.245 -0.208 0.411 -0.197 -0.872 2.952 0.385 0.515 0.253 0.371 -1.190 0.157
si -1.203 0.063 0.878 0.990 1.099 0.219 -0.232 2.236 -0.668 0.160 1.299 -0.580 0.832 -0.720 1.411 -0.985 -0.955 -1.593 0.659 -0.390 0.024 -0.959 -0.170 0.490 0.042 0.009 1.526 -1.650 1.194 0.198 0.220 -0.555 -0.465 -0.410 -0.133 -1.351 -1.144 -0.134 0.580 -0.886 0.625 -0.835 -0.231 -0.613 -0.031 1.716 -0.679 -1.426 -0.071 0.537 1.742 -1.713 1.649 -0.150 -0.851 -0.292 -1.818 -1.245 0.901 0.993 0.536 1.287 -0.376 -0.929 -2.875 0.046 1.332 1.345 -0.400 1.069 -0.970 1.090 0.955 0.951 -0.856 -2.020 -1.654 0.042 1.434 -0.317 1.451 0.062 -1.905 -0.634 -0.900 -1.527 -0.611 -0.505 -0.652 0.434 -1.654 1.618 -0.037 -0.123 0.901 1.028 -2.340 -1.098 0.842 0.931
lentement 0.066 -1.360 0.038 1.233 0.875 -2.063 1.711 0.306 1.830 1.645 -0.146 -0.008 0.077 1.382 0.155 1.101 0.232 -1.619 0.049 0.008 -1.007 0.266 -1.845 -1.743 0.800 -0.145 0.610 -1.531 -0.609 -0.199 1.150 -1.838 0.242 -1.041 -0.323 -0.637 0.180 1.470 0.158 -1.749 -0.070 -2.171 0.919 0.237 -0.280 -0.778 0.135 0.276 1.420 -0.876 0.010 0.331 2.334 -0.185 1.295 0.571 -0.968 -0.390 0.617 -0.456 -1.179 1.625 0.124 1.935 0.521 1.138 -0.921 0.588 0.723 -0.749 -2.253 -0.340 1.021 0.824 0.223 2.481 -0.850 0.264 0.231 0.300 -0.247 0.752 -1.033 -0.387 0.989 0.361 0.429 0.728 -0.217 0.488 -0.491 -0.952 -0.179 0.512 0.083 -0.999 -0.105 -1.009 -0.782 -1.943
allure -1.006 1.692 1.595 -1.032 0.648 -0.006 -1.209 0.753 1.944 -0.363 -0.902 0.987 1.367 1.529 0.066 -0.260 0.303 -0.692 0.229 -1.082 -0.638 -0.611 0.490 1.263 -0.414 -0.827 -0.721 -0.726 -0.606 -1.377 -1.896 -0.837 -1.146 -0.087 0.969 0.907 -0.005 0.329 0.469 -0.050 -1.242 -0.833 -1.362 -1.592 -0.212 -1.715 -0.792 0.771 -0.522 0.619 -0.111 1.612 0.035 -0.504 0.260 -1.008 -0.055 -1.082 -0.288 0.117 0.386 0.477 -0.265 0.602 -0.629 0.174 0.565 0.693 0.215 0.888 -0.574 -1.805 0.196 -0.615 -0.639 1.274 -0.137 1.051 -1.047 -0.154 -0.772 -0.099 0.070 -0.750 -0.002 0.763 -0.044 -0.275 0.813 1.096 -0.690 -0.855 -0.620 -1.444 0.090 0.554 -1.277 -1.364 -1.918 1.463
triste 0.348 0.443 -1.220 -2.517 1.928 -1.112 0.468 0.271 1.037 1.026 -0.161 -0.605 0.085 -0.661 -0.820 -0.162 1.308 -0.494 0.492 0.775 -0.383 -0.184 2.078 0.033 0.315 -0.156 1.282 0.217 -0.246 0.235 0.344 -0.294 0.434 0.310 -0.358 0.038 -0.338 0.572 0.038 -1.033 -1.801 0.540 -0.480 0.898 -0.547 0.038 -0.217 -0.218 0.504 0.454 1.591 1.690 2.188 -1.072 -0.145 0.887 -0.854 -0.143 0.750 -0.303 -0.053 2.036 0.715 0.784 0.970 -0.094 0.615 -0.765 0.163 1.338 -0.369 -0.904 0.591 -0.175 0.276 0.751 -0.927 -0.233 1.156 0.571 -1.122 0.115 0.304 0.206 -0.279 0.032 -0.058 -0.400 -0.995 1.481 1.454 -1.700 -1.193 2.011 0.425 0.538 -0.605 1.914 1.380 0.478
avec -0.539 0.174 -0.981 1.360 -1.106 0.863 0.488 -1.634 0.547 0.062 0.800 0.611 1.040 0.870 -0.875 0.300 0.706 -0.908 -0.888 1.233 -0.657 -0.207 -1.838 -0.041 -0.693 0.176 0.312 -2.112 0.648 0.338 0.522 -0.860 0.085 0.693 -2.327 -1.103 -0.940 -0.630 1.522 -1.018 -0.777 -0.715 -0.997 -0.414 -1.324 -0.984 0.154 0.179 1.097 -0.001 -1.178 -0.800 -1.776 0.057 -0.451 -0.643 0.700 -0.845 0.790 -0.098 0.921 1.091 0.121 -0.439 -1.391 0.376 -0.185 1.663 0.169 -0.619 -0.166 -1.322 -0.136 0.531 0.534 0.640 -0.436 -1.444 -0.739 1.212 1.299 0.155 -0.231 -0.903 0.610 -0.270 0.584 0.254 0.305 0.100 -1.104 0.474 -2.078 -0.425 -2.006 0.082 -0.547 0.871 0.969 -1.070
cet 2.074 -0.821 -1.521 -0.533 0.000 0.581 -0.068 -0.799 -0.057 -1.581 0.173 -0.517 -0.100 -1.156 -0.574 0.816 -0.050 0.088 0.894 -0.104 -0.927 1.066 1.001 -1.154 1.034 -1.290 0.323 -0.466 0.383 -0.112 -1.213 0.310 1.966 -0.078 1.028 0.370 -2.577 0.485 1.082 0.650 -0.822 0.859 1.256 0.009 -2.226 -0.831 -1.328 0.485 1.463 1.433 0.044 1.348 -1.858 -0.734 1.666 -1.036 1.619 0.341 0.305 -0.418 -0.531 0.163 0.199 0.159 0.246 0.515 0.629 0.010 -1.338 0.830 0.568 1.094 -0.453 0.042 -0.821 1.020 0.608 0.845 1.512 0.978 -0.152 -0.627 1.029 -1.255 0.284 0.328 -0.060 0.101 -0.132 -0.587 -0.381 0.509 -0.044 0.308 -0.808 0.873 2.057 0.997 0.228 0.603
instinct -1.072 0.282 -1.022 -0.985 -0.078 2.634 -0.557 1.666 -0.482 0.518 0.416 -0.832 0.218 0.477 -1.732 1.791 0.359 -1.811 -1.176 -4.066 -0.484 -0.538 1.549 -0.139 -0.643 -0.999 -0.550 -1.725 -0.870 0.321 -0.164 0.167 -0.980 1.059 0.178 -0.507 -1.779 0.616 0.186 0.365 -1.021 -1.195 -0.817 0.236 -0.950 0.361 -1.051 0.188 0.502 -1.860 -1.071 1.544 0.255 -1.527 -0.679 -0.624 -0.165 1.093 0.758 -0.534 -1.310 -0.729 0.994 -0.372 -0.255 -0.257 1.388 -1.086 -0.222 -1.163 -0.177 0.336 0.660 -0.763 -1.240 -0.647 -2.529 -0.462 1.243 0.647 1.025 1.184 -1.387 -0.692 -0.217 -0.106 -0.469 0.265 -1.004 0.928 -0.807 0.390 -1.251 -0.079 -2.738 -0.690 -0.652 -0.279 0.263 -0.983
qui -1.282 -1.311 0.809 -0.172 1.791 -0.512 0.181 -1.082 0.323 1.704 1.500 0.075 0.553 0.863 -0.935 0.398 -1.362 -1.275 -0.465 1.225 -0.540 -0.132 -1.510 -0.028 -0.111 0.199 0.142 -0.454 0.594 0.674 0.411 -0.854 -0.993 0.104 -0.746 -0.068 0.882 -1.780 0.574 0.217 1.179 -0.333 0.517 1.174 0.192 -1.093 0.124 0.186 -0.459 0.002 -1.224 1.832 0.794 -1.649 0.014 -0.285 -0.332 0.591 1.011 1.333 -1.018 1.339 -1.006 1.283 -0.044 -0.190 -0.644 -1.117 1.159 -0.092 -0.554 -0.573 -0.352 0.696 -0.274 -0.124 -0.964 0.137 -0.076 1.263 0.462 0.183 0.760 0.584 -0.802 -1.532 -0.203 1.034 0.093 0.105 -1.314 -1.981 -0.732 1.893 -1.263 0.747 0.678 -1.455 0.078 -1.301
pressent -0.756 0.293 -0.546 1.151 2.317 -1.048 0.410 -1.471 -1.591 -0.405 -0.069 0.161 -0.240 -0.863 -1.611 0.361 -0.826 -0.689 -0.300 -0.831 -0.381 0.468 1.638 -0.189 -2.503 0.205 -0.336 0.416 0.515 0.601 1.402 -1.443 0.707 0.594 -1.383 1.278 1.678 -1.132 0.219 0.623 -1.330 0.629 -0.608 -0.807 0.994 0.019 -0.785 1.210 -0.704 -0.665 -1.769 1.604 1.137 -0.491 -0.663 0.720 0.261 0.165 1.199 -0.961 -0.279 -0.087 -0.839 -0.069 0.015 0.549 0.413 1.174 0.953 0.683 -0.643 -0.050 -0.234 -1.158 0.842 0.707 0.783 -0.630 0.529 -0.140 1.164 0.096 0.307 -1.459 -0.661 -1.068 -0.806 -0.311 1.026 -0.556 0.185 -0.420 -0.493 0.550 -2.148 -0.231 0.086 0.312 -0.021 0.287
malheur 0.495 1.220 -0.422 -0.352 0.115 1.279 -1.203 -0.031 0.765 -0.376 0.044 0.940 -0.060 0.798 2.197 1.248 -0.244 -1.132 0.792 0.581 -0.429 0.183 0.903 0.955 0.048 -0.823 -0.891 -0.784 1.438 0.706 -1.086 1.043 1.393 1.397 -2.264 -0.344 0.237 -2.144 1.607 -1.243 0.608 -0.353 -1.310 0.242 -1.857 -0.544 -0.627 0.624 0.206 -0.709 -0.383 -1.800 0.932 0.281 -0.600 1.488 0.530 0.875 0.322 -0.325 -0.678 1.041 -0.010 -0.040 -0.034 -0.155 0.187 0.010 1.615 -0.930 0.645 -0.943 -0.855 -0.066 1.166 1.017 1.312 -1.026 -1.328 2.027 1.737 -1.619 0.243 -1.138 1.371 1.217 1.550 0.396 0.356 -1.750 -1.568 0.676 -0.695 -1.202 0.795 1.171 1.175 -1.481 -0.320 0.359
se -0.471 0.419 0.781 0.345 0.924 -1.211 0.475 0.791 -1.292 -0.379 0.611 -0.907 -1.639 0.447 0.004 0.073 0.045 -0.201 -0.438 -0.836 0.454 0.566 0.290 0.469 -0.690 -1.779 2.513 -2.614 0.103 -0.005 -0.665 -1.427 0.352 -0.855 0.333 0.092 0.004 -1.025 -0.038 -0.609 -0.056 0.458 0.037 -0.648 -0.666 -1.421 -0.088 0.872 0.622 1.793 -0.592 0.241 -0.320 -0.713 0.390 0.919 0.819 1.342 1.630 1.267 -0.670 1.757 1.118 1.648 -0.604 -0.458 -0.118 -0.067 0.839 -1.059 0.372 0.581 -0.020 -0.963 -0.548 -0.084 0.596 -0.427 -0.458 -0.278 -0.977 2.191 0.094 0.839 0.043 -0.068 0.100 0.461 -0.676 0.945 -1.143 1.332 -0.803 0.149 0.885 -1.516 0.241 -0.728 1.566 -0.971
demandaient -1.707 0.074 -0.434 -1.041 0.202 0.075 1.049 -1.045 1.231 0.391 -0.205 -0.881 0.042 -0.209 0.174 1.468 1.161 -0.814 -0.968 1.267 -0.379 1.351 1.279 0.382 0.804 0.126 -0.974 -0.283 0.320 0.664 0.024 1.717 -0.610 -0.526 0.718 -0.293 0.619 0.444 1.057 0.972 -0.962 -2.140 0.360 -0.934 -0.023 -1.824 -0.233 0.542 1.041 -0.351 -1.074 0.835 0.144 -1.666 0.307 2.359 0.750 -1.380 -0.515 -0.299 0.247 -0.185 0.207 1.125 0.408 0.147 2.190 0.086 0.560 -0.966 -0.347 -1.207 0.479 -0.235 -1.101 1.573 -0.092 -1.966 0.844 -0.166 -0.917 -0.021 -0.097 -0.791 0.027 0.310 -0.473 -0.247 -0.542 2.292 -0.314 0.172 1.326 0.237 -1.212 1.308 -0.741 0.870 0.697 -0.097
quel 0.498 -1.378 -0.364 0.757 1.474 0.177 1.546 0.279 -0.744 2.295 0.323 0.423 2.475 0.225 0.293 -1.195 0.118 -1.613 -0.373 -0.575 0.390 -1.546 -0.806 1.547 -0.693 -1.366 -0.163 1.205 0.449 0.159 2.372 -0.416 -1.530 1.120 0.863 -0.496 -0.243 -0.107 1.153 1.175 -0.199 -0.439 -0.251 0.191 0.068 -0.197 -0.290 -0.020 0.717 1.178 -0.845 1.636 2.258 -0.954 -1.168 -0.153 -0.480 0.252 -0.397 -0.350 -1.265 0.529 -0.075 1.282 1.545 0.450 0.353 0.419 -0.851 0.679 -1.481 -0.380 0.192 0.335 1.260 0.230 -1.476 0.527 0.118 -1.279 1.423 -1.664 -0.577 -0.494 -0.762 0.964 -1.231 -0.312 -1.765 3.293 -0.300 1.736 -1.019 -0.588 -0.497 -0.142 1.441 0.757 -0.857 0.623
accident -1.090 -0.376 -0.440 -0.332 -0.849 -0.278 -1.020 0.318 -0.936 0.470 0.789 0.873 -1.306 -1.497 -0.141 -0.780 1.309 -0.541 0.699 0.656 -1.294 -0.706 0.847 0.290 0.600 0.076 0.256 -0.017 2.048 1.131 1.315 0.089 -0.361 2.208 1.593 0.501 0.823 -0.479 0.570 -0.931 0.594 0.480 -0.616 -1.105 -0.308 -1.849 0.961 0.326 -0.856 0.746 -0.473 0.936 0.136 -0.809 0.303 -0.077 0.664 0.925 -0.048 -1.395 -1.301 1.125 -0.283 -0.638 -0.639 0.038 0.428 -0.239 0.646 0.143 -0.769 -1.364 1.237 0.758 0.696 -1.053 -2.368 -0.429 -0.808 -0.000 0.187 0.838 -0.670 0.012 -0.443 0.426 -0.092 1.192 1.214 1.085 -2.188 -0.163 0.337 2.866 0.072 0.974 -0.299 0.258 1.442 -0.120
pouvait -0.112 -1.189 -1.815 0.460 0.748 1.444 -1.996 0.284 -0.043 -0.629 0.126 0.004 0.326 -0.986 -0.074 -0.576 0.015 -1.017 0.961 0.722 -1.397 0.008 0.789 1.306 -1.851 -1.403 0.813 -2.683 0.615 1.530 -0.132 1.201 -0.408 0.236 -0.855 -0.838 0.751 -0.775 -0.799 1.035 -0.586 1.208 0.481 0.060 -1.366 0.219 -0.473 -1.299 1.639 1.429 0.126 -0.667 -0.686 0.317 -0.878 -0.151 -0.183 -0.817 -1.507 0.674 -0.543 -0.858 -0.785 -0.026 -0.738 0.093 0.549 -1.027 1.258 -0.542 -1.452 1.304 0.898 0.173 -2.828 2.081 2.589 -0.070 -0.540 -0.220 -0.065 -1.172 0.527 -1.348 0.657 0.457 0.308 0.775 -2.479 -1.698 -1.266 -0.608 -1.973 -1.225 1.395 1.462 1.320 -1.193 -0.241 -0.430
être -0.564 -0.105 -1.570 -0.001 0.775 -0.665 0.886 -0.339 -1.285 1.684 1.164 -0.334 -1.024 0.320 0.971 0.813 0.494 -0.269 -0.249 0.119 -1.023 -1.047 0.325 -0.823 1.740 0.045 0.609 0.481 1.422 0.311 0.664 -1.100 -0.675 0.736 -0.370 0.156 0.419 0.197 0.524 -0.874 -1.433 0.140 -0.307 0.137 0.552 -0.791 0.365 0.728 1.291 0.046 -1.418 0.427 0.019 -0.655 0.812 -0.730 -1.582 0.957 -0.104 0.383 -0.365 -0.428 -0.039 -1.117 -0.416 0.302 -0.086 -0.314 1.045 -0.488 -0.405 1.573 0.479 -1.302 1.089 1.305 0.059 -0.991 0.957 0.322 -0.586 -1.511 -0.566 -0.707 0.888 -0.085 0.946 -0.882 -2.012 1.446 0.615 -1.456 0.250 -1.217 -0.169 2.290 -1.165 -0.052 0.051 0.473
arrivé -0.707 -0.974 -1.010 -1.688 0.234 0.535 -0.064 2.124 -0.081 1.086 -0.462 -0.578 -0.303 1.035 -0.942 0.353 2.288 -1.757 -0.403 -0.873 1.007 -0.126 -0.148 0.289 0.072 -0.372 0.579 -1.518 2.216 -0.098 0.985 -1.454 0.349 0.323 -0.026 0.375 -1.186 -0.024 0.090 -0.294 -1.405 -0.140 -0.647 0.235 -0.179 -0.895 -0.283 -0.374 1.010 1.186 -0.207 0.424 0.417 1.996 -0.211 0.303 -0.326 0.639 0.779 -0.109 2.117 -0.476 1.042 -1.727 -0.251 -0.061 -1.104 -0.940 0.612 0.747 0.936 0.063 0.601 0.950 -0.033 -1.326 -0.094 -1.293 0.216 1.291 0.971 0.115 -0.069 -1.328 -0.994 -0.416 -0.286 -0.658 -1.208 0.443 0.171 1.462 -0.844 0.716 -0.358 -0.273 -0.874 0.707 0.187 0.173
bord -3.330 0.124 0.339 1.298 0.183 -0.873 1.339 0.662 0.011 1.345 0.410 0.334 -1.058 -0.273 0.800 0.697 0.798 -0.869 -0.346 0.463 -1.019 -0.059 -0.682 -0.190 1.285 -0.338 1.373 -0.797 1.819 0.104 0.387 0.280 0.527 -0.332 -1.066 -0.969 -0.058 -0.906 -0.038 -0.399 -0.217 0.823 -0.146 -1.054 -0.875 -0.330 -0.755 -0.224 1.376 0.011 0.096 0.032 1.801 -0.822 2.715 1.618 -0.551 -0.990 1.324 0.652 -0.315 0.794 0.050 -0.204 -1.314 -0.311 1.700 0.731 -0.024 0.221 0.918 -0.057 1.888 -0.518 -0.484 -0.219 -1.305 0.728 -0.563 0.774 -0.321 -1.025 -0.497 1.373 -0.684 0.043 1.015 -1.771 -1.481 -0.826 0.635 2.889 -0.215 -0.325 -0.531 2.291 0.071 -1.447 0.705 0.069
néanmoins 0.222 -0.092 1.070 -0.573 1.565 0.373 0.821 1.793 -2.309 -0.566 -0.931 -0.038 1.405 -0.352 -0.737 0.349 -0.251 1.446 1.100 0.256 0.615 -0.107 1.681 1.741 0.884 0.690 -0.235 0.730 0.391 0.781 -1.627 0.901 -0.392 0.904 -1.372 0.688 -1.833 0.233 1.583 -0.386 0.583 0.224 1.733 2.037 -1.518 -0.008 -1.291 0.729 0.217 -1.591 -1.909 1.845 0.543 -1.987 0.086 -0.461 0.572 0.745 0.020 -0.256 -0.108 -0.941 -0.342 -0.105 0.096 0.283 -0.070 1.380 -0.138 0.014 0.808 -1.486 0.910 1.120 -0.045 0.698 -0.255 0.705 1.022 -0.312 -1.268 -1.135 -0.485 0.090 -2.390 -1.124 0.118 -1.364 -2.386 -0.015 -2.162 -0.935 0.578 0.833 -0.307 2.121 0.328 0.004 1.585 -0.870
experts 0.724 -0.498 -0.414 -0.333 -0.226 -0.599 -0.530 -0.863 -1.048 -1.921 -1.454 -1.574 -0.519 0.340 -1.056 -0.438 0.310 -2.452 -2.491 0.455 1.071 -0.101 0.548 -1.725 1.348 0.617 0.173 -0.402 0.123 1.269 0.293 -0.072 0.519 0.591 0.269 0.203 0.334 -1.996 -0.870 0.543 0.782 -0.426 -1.809 -1.957 -1.045 0.349 0.380 1.145 -0.615 2.040 0.358 -0.451 -0.609 -0.517 -1.570 -0.180 0.618 -0.646 2.453 0.661 -0.101 0.318 -0.650 2.234 0.182 1.121 1.380 0.111 0.400 0.960 1.452 -0.671 -0.677 -0.385 1.690 1.132 0.913 0.042 0.076 -0.109 0.043 -0.966 -0.887 -1.483 -1.483 0.961 -0.653 0.065 -1.195 -0.407 -0.616 -0.619 -0.923 -1.882 -0.817 -0.311 0.837 0.276 0.869 0.678
en 1.121 0.811 -0.143 1.054 -0.133 -0.889 -0.600 1.629 -0.787 -0.947 -0.319 -0.929 -0.871 -0.887 0.404 -1.405 0.712 0.420 -1.333 0.732 1.954 -1.332 0.848 -0.089 -0.635 0.259 0.127 0.746 -1.675 -0.437 0.187 0.145 -1.792 0.653 -0.076 -0.139 -1.046 -0.342 0.477 -1.591 0.631 -1.815 -0.060 0.732 -0.324 -0.422 -0.164 0.136 -0.606 -2.590 -1.465 0.266 0.415 0.328 -1.323 -1.515 0.012 -1.791 -0.117 0.645 0.985 0.183 0.836 1.424 -1.174 -0.531 0.503 -0.721 1.703 -0.323 -1.016 0.527 0.172 0.403 0.586 1.070 -0.215 0.692 -0.969 0.693 0.095 0.459 2.719 -1.859 -1.100 0.604 -1.631 -1.022 0.555 0.645 -0.676 0.200 0.395 -0.122 -0.930 2.023 1.061 0.426 0.180 0.131
navigation -0.468 -1.237 -0.273 0.996 1.048 2.810 0.388 2.001 0.281 1.764 0.822 -0.963 0.151 0.664 0.520 -0.312 1.550 -0.021 0.205 -0.777 0.522 0.936 1.058 -1.724 -0.112 -0.509 -0.447 1.561 0.023 -0.469 -0.094 -0.120 0.228 0.867 -1.071 -1.029 0.594 -1.905 2.122 -0.112 -1.371 0.423 1.163 1.117 -2.462 0.254 -1.394 -1.599 0.689 -1.079 -0.817 1.059 -0.312 -0.554 -0.832 0.260 -0.153 -0.929 0.694 -0.780 -0.192 1.126 2.181 -0.023 0.872 -0.581 1.088 -1.027 0.369 -0.589 1.236 0.645 1.326 -0.323 -1.225 1.570 0.055 -0.324 1.258 -0.546 -0.295 0.191 0.758 -1.706 0.830 -0.411 0.930 0.410 1.312 0.351 -0.448 0.345 0.969 -0.193 1.222 -0.559 0.617 1.098 -1.219 -0.937
reconnaissaient 1.042 -1.079 0.381 1.264 1.619 0.108 0.423 1.546 0.678 -1.491 -0.250 -0.865 1.098 -0.040 -1.403 -1.089 -0.351 1.096 0.894 0.215 0.820 0.174 -1.089 -0.031 0.402 1.678 0.598 -0.572 -0.188 0.705 0.531 0.657 -1.040 0.506 -0.760 -1.978 0.634 0.343 0.027 1.383 -0.250 -1.586 -0.719 0.450 0.789 0.107 0.678 -0.113 1.372 0.417 -0.984 0.452 1.201 -1.064 -0.673 0.281 0.219 -0.411 -0.755 3.120 0.528 0.734 -1.271 0.913 0.067 -1.725 -0.900 -1.508 -1.561 0.204 -2.351 1.402 -0.268 0.475 -0.019 0.058 0.529 -2.032 -0.966 -1.087 -0.496 0.316 -0.880 0.150 -0.616 0.173 1.023 0.796 -0.890 -0.505 0.424 -0.510 -1.158 3.059 -0.093 0.151 0.277 -0.983 0.789 0.641
ne -0.858 -0.797 -0.057 -0.260 1.205 -0.010 0.455 0.971 1.373 -1.192 -1.714 -1.251 0.705 -0.573 -0.731 1.687 -0.387 -0.843 -0.886 0.781 0.643 0.201 1.703 -0.382 -0.156 -0.603 1.636 0.066 1.091 0.487 -0.340 1.571 -0.800 1.666 0.864 1.078 0.102 0.416 -0.034 -0.186 -0.100 -0.111 -0.746 -0.277 -0.396 1.190 1.620 -0.573 -0.007 2.409 0.966 -2.029 -0.268 -1.083 0.058 1.231 -0.121 -0.283 -1.607 0.213 1.136 0.524 1.316 1.364 -0.477 -0.889 1.067 -1.186 -1.169 0.828 -1.351 -1.095 -0.337 0.849 -0.949 1.413 -0.887 0.806 -0.619 -0.611 0.723 -0.732 -0.619 -1.101 0.060 -0.134 0.807 -1.425 -1.358 -0.724 0.568 1.346 -1.261 1.744 -0.519 0.919 0.697 0.164 0.003 -0.512
au 1.143 -0.887 -2.313 1.163 -1.202 -0.162 0.164 0.645 1.051 -0.576 0.852 0.544 1.109 -0.215 0.456 -0.169 -0.454 -1.765 0.829 -1.622 -0.329 -0.911 0.360 1.948 0.165 -0.748 -1.013 -2.298 0.397 -0.232 0.953 -0.503 -1.268 0.601 1.448 0.422 -0.954 -1.017 1.498 0.200 0.507 0.940 -0.184 1.929 -1.276 -0.207 -0.475 0.813 1.872 0.283 1.979 -0.102 -0.602 -1.038 -0.264 -1.384 0.674 -0.346 0.002 -1.805 -0.537 -1.566 -0.491 1.202 -0.266 -0.262 0.991 -0.139 0.514 1.273 -1.884 -0.807 -0.138 -0.181 0.557 0.260 -0.278 -0.103 1.165 0.702 -0.231 -0.367 -0.009 -0.813 -1.408 -1.203 -0.786 0.494 0.226 -0.097 -0.474 -0.525 -1.725 1.848 0.715 1.071 0.503 -1.029 -0.075 0.588
lui -0.279 0.087 2.029 -0.133 0.614 2.280 0.287 2.143 -0.016 -0.493 2.354 0.912 -0.863 -0.984 0.647 -0.395 1.379 1.602 0.450 -0.746 -0.763 -1.143 -0.314 0.261 0.678 0.359 0.064 -0.043 -0.961 -0.808 -2.517 0.204 -0.384 0.547 0.149 0.309 1.386 -0.598 1.056 -2.628 -1.084 1.366 -1.758 1.509 -0.549 -0.174 -0.665 1.670 0.009 -0.654 0.490 -0.672 0.623 -0.063 1.166 -0.050 -0.771 0.504 1.586 1.016 0.350 1.129 -0.148 -0.824 0.116 0.984 0.650 -0.414 -0.813 0.272 -0.530 2.217 1.673 -1.322 1.265 2.485 0.311 -2.526 0.378 0.651 1.243 -0.169 -0.725 -1.755 1.131 -0.359 -1.218 0.661 0.286 -2.355 0.548 -0.454 1.166 -1.529 0.043 0.756 -1.439 0.505 1.380 -0.908
même -0.144 0.197 -0.273 1.421 1.061 -0.022 1.045 1.229 1.707 1.525 -1.337 0.795 -0.452 -2.084 -0.275 1.809 1.398 -0.128 0.493 -1.478 -0.413 0.746 0.201 -0.670 -0.146 -0.429 0.490 1.080 -0.857 1.156 -1.127 -0.271 -0.701 0.596 -0.877 0.426 -0.934 -0.351 0.862 -1.201 0.047 0.098 -0.982 -2.942 3.030 0.275 0.066 1.424 0.494 -0.381 1.108 -0.046 -0.738 1.451 -0.980 0.277 1.567 -0.908 1.825 -1.393 -1.045 -0.143 1.063 0.826 -0.172 0.167 1.046 0.160 -1.512 0.260 -0.968 -0.163 -0.617 0.341 -0.370 -1.469 -0.005 1.172 -0.186 -0.180 -1.021 -0.663 0.603 -0.414 0.063 1.019 0.020 0.135 -2.227 -0.228 0.214 -1.420 0.102 0.172 1.160 0.500 -0.527 0.883 2.762 1.563
dans -0.337 -0.883 -1.180 1.247 0.654 -0.099 -1.548 -1.409 -1.760 -0.778 -0.845 1.316 -0.962 -1.942 0.789 -1.017 -0.880 -1.009 0.356 -0.395 -0.379 0.247 0.561 -0.633 -0.318 -0.705 0.289 -1.652 -1.615 -0.768 1.288 -0.367 -0.201 1.512 1.460 -0.572 -0.396 -0.982 -0.171 -1.852 -0.637 0.216 0.705 0.919 -0.702 -0.576 -0.398 -0.986 -1.056 -2.096 -0.155 -0.282 0.070 0.573 0.711 0.967 0.259 0.176 0.267 0.661 1.659 1.721 0.235 -0.344 -0.703 0.915 1.714 0.482 0.637 -0.809 0.268 1.737 -0.408 3.282 0.538 0.706 0.292 0.391 0.403 -0.176 0.850 -0.392 0.775 -0.230 -1.649 2.196 1.119 0.304 -0.446 -1.885 0.296 0.259 -0.047 -0.379 -0.682 1.209 -0.852 -0.494 -0.058 -0.548
toutes -0.465 -0.287 1.080 -1.394 -0.857 0.786 -1.172 0.363 0.136 -0.634 -0.767 0.093 1.923 0.706 -0.486 1.421 0.628 0.722 0.295 0.924 0.359 2.428 0.883 -0.330 0.034 0.213 0.179 0.824 -0.145 -0.915 -0.143 1.654 -0.740 0.349 0.140 -0.985 -1.124 0.354 0.589 -1.233 -2.648 0.376 -0.205 -0.423 0.042 -1.853 -0.382 1.097 -0.238 1.107 -1.981 0.024 0.969 2.570 1.195 2.592 -0.987 -0.855 -0.114 0.774 0.545 -0.220 0.133 0.794 -1.178 -1.476 1.336 0.240 -1.099 -0.474 0.057 -0.189 0.871 -0.974 -0.609 0.069 0.654 -0.305 -0.933 0.344 -0.133 0.673 0.436 -1.352 -0.414 -0.452 1.040 0.720 -0.048 1.647 -1.237 -0.295 0.339 0.838 -0.485 -0.275 1.037 1.679 -1.115 -0.047
conditions -1.206 1.769 0.741 1.936 0.062 0.126 0.186 0.621 -0.793 -0.984 1.181 0.989 -0.426 0.343 -0.695 -0.692 0.797 0.572 1.649 -0.571 1.188 -0.291 -0.015 2.292 0.520 -1.524 0.246 1.200 -0.204 -2.418 0.243 0.049 2.552 0.135 -0.986 0.283 -0.324 -0.342 1.360 0.673 0.330 -0.770 -1.084 1.466 -2.394 -0.191 0.509 -0.769 -0.364 2.182 -1.743 -0.711 0.121 -1.234 0.973 0.687 -2.046 -1.952 -0.264 -1.066 -0.406 -0.938 -1.357 0.372 -0.257 0.415 -0.586 0.482 0.704 1.538 -0.803 0.695 -1.336 0.164 1.077 -0.996 0.197 -0.289 -0.371 -0.572 -0.475 0.700 0.542 -1.649 1.919 1.038 1.453 1.395 -0.870 0.700 -0.810 0.258 -1.768 0.946 -1.590 -1.199 -0.960 0.251 2.014 -1.403
parfaitement -0.504 -0.078 1.463 0.855 0.950 0.519 -0.869 -0.263 0.310 0.178 0.076 -0.695 -0.835 0.492 0.224 -0.256 -0.869 -0.250 -1.509 -0.826 -0.245 0.267 0.194 0.294 1.454 -0.258 -1.940 0.340 0.673 -1.125 -0.888 -1.155 0.699 1.363 -1.401 1.121 -1.101 -0.189 0.313 -2.118 0.919 -0.793 0.417 -0.763 -0.982 -1.026 0.875 0.296 -0.124 -2.157 -0.361 -0.837 -0.364 0.406 0.316 -0.013 1.617 -1.127 -1.258 -0.144 -1.414 -1.349 -1.217 1.550 -0.011 0.480 0.066 0.584 -1.085 0.922 -1.164 -0.308 0.098 -0.637 0.151 -0.817 -1.220 -0.008 0.241 0.709 0.039 0.432 0.280 0.510 0.158 0.528 2.115 0.415 2.249 -0.199 0.084 0.049 -1.160 1.867 -2.093 0.375 -0.667 0.109 0.175 0.340
gouverné -1.982 0.345 -1.559 0.577 0.207 0.576 0.386 -0.410 -0.006 2.643 -0.040 0.487 -1.654 -0.640 2.319 -0.744 1.555 0.172 -1.889 -0.657 0.531 -0.334 1.455 0.317 0.246 -0.811 1.583 -0.320 0.057 -0.101 -0.294 0.685 -0.118 -1.036 -0.598 -0.481 1.196 -0.737 0.708 -0.665 2.752 -1.086 -1.137 -0.186 1.112 0.023 1.707 1.361 -0.575 0.436 0.771 1.970 -0.735 -2.031 -0.177 0.636 -0.227 -0.498 -0.626 -0.948 -0.496 -0.310 -0.535 0.807 -1.401 -0.259 0.297 -0.405 0.711 -1.695 0.032 0.217 -0.201 0.712 -1.242 -0.452 -0.101 -1.502 1.734 -1.496 -0.266 -0.226 0.890 -0.894 -0.651 0.802 0.472 -0.022 -0.828 0.736 -0.653 -0.138 -0.156 2.283 -0.511 0.035 0.955 -0.502 2.127 1.133
: 0.592 0.479 0.055 0.311 0.374 0.255 -0.412 -0.162 -0.205 1.321 -0.058 -0.586 -0.033 -0.760 2.279 0.448 -0.512 -1.299 0.477 0.243 0.582 0.837 0.878 0.916 0.109 0.815 -0.520 -0.779 1.909 -1.978 0.723 -0.638 -0.658 2.534 -0.462 0.121 0.569 0.077 1.093 -0.952 0.716 -0.125 -1.780 1.611 0.188 0.503 0.585 0.086 0.179 -0.606 -1.406 0.818 0.751 -1.176 0.921 -0.588 -0.977 -0.824 2.664 -1.872 -0.712 0.860 -0.391 1.136 -0.976 -1.016 -0.122 -0.389 -1.774 1.840 0.215 0.102 -1.570 -1.246 -0.495 0.292 -0.384 -0.258 -0.842 0.012 1.180 -0.348 -0.108 0.566 -0.707 -0.121 -0.300 0.711 -0.533 0.851 -0.258 1.853 -0.637 -1.256 0.546 0.270 -0.530 0.526 -0.251 1.164
ancre 1.442 -0.219 -0.044 0.205 0.474 0.490 0.638 -0.603 0.920 -0.155 0.265 -1.480 0.136 -0.336 -0.019 0.871 0.414 0.877 -1.245 -0.358 0.591 -0.654 -0.347 0.314 -0.891 -0.012 -1.734 0.258 0.502 1.385 -0.958 0.324 -0.435 1.156 -0.004 0.026 0.610 -0.653 1.384 -1.008 -1.275 -0.879 -1.750 0.668 1.905 -0.530 -1.387 2.040 0.274 0.221 -0.686 1.306 0.068 -0.684 2.388 -0.177 1.070 -1.835 0.155 1.312 0.799 0.902 -1.327 -0.808 -1.113 -0.619 -0.693 -1.788 -0.786 -0.668 -0.140 0.029 0.238 -2.448 -0.000 0.836 -1.094 1.695 0.890 -0.768 -0.931 0.381 0.357 0.135 0.629 0.433 -0.001 -1.607 -0.621 -1.639 0.140 -0.438 -0.094 0.415 -0.092 1.330 -0.862 0.225 -1.013 0.090
mouillage 0.533 0.514 1.107 0.677 -0.347 0.426 0.511 -0.952 -1.376 -0.208 0.273 -0.622 1.837 -0.501 0.316 -0.982 -0.661 0.166 0.257 -0.854 1.855 1.918 1.462 0.033 -0.830 -0.249 -0.994 -0.620 -1.409 0.365 -2.570 1.963 -0.646 -0.434 -1.481 0.302 -1.147 -1.824 0.823 -1.501 -0.749 -1.394 -0.925 -1.861 -0.447 0.004 -0.480 0.856 0.977 -0.792 0.384 0.871 0.660 0.109 1.185 0.951 -1.362 -0.075 -0.619 1.307 -0.626 1.978 1.140 -1.400 2.323 1.408 -0.187 -1.571 -1.167 0.136 -1.368 -0.185 -0.590 0.063 2.882 -0.896 0.134 1.687 -1.127 -1.023 0.902 2.818 -0.854 -0.869 0.527 0.237 1.428 -0.473 0.727 -0.972 -0.141 -1.118 -0.086 0.411 -0.634 -3.877 -1.108 1.233 1.200 0.136
haubans 0.061 0.646 1.133 0.782 0.347 -0.481 1.128 0.286 -2.011 0.637 -0.388 1.420 1.307 -0.726 -1.993 1.385 -0.093 -0.200 0.671 0.240 0.289 -0.721 0.536 0.351 1.471 0.513 -0.678 0.664 0.769 0.416 0.111 -0.961 0.314 0.446 0.477 -0.112 0.027 -0.043 0.605 -1.867 -0.313 0.024 0.132 1.798 -0.441 -0.182 -0.925 0.452 -0.363 0.724 0.121 0.167 -1.021 -1.066 0.486 0.193 1.203 -0.158 -0.045 -0.288 0.640 0.890 1.125 0.980 -0.619 -2.027 -0.529 2.087 1.087 -2.056 -1.954 0.911 -1.275 0.449 -0.934 -0.509 0.095 -1.464 -0.623 0.260 0.068 -0.273 0.469 0.506 -0.825 0.108 -0.919 -3.214 -1.140 -1.917 -1.102 -0.307 -1.562 -0.940 1.724 1.179 -2.189 0.427 0.608 0.906
beaupré 1.600 -1.501 -0.002 -0.201 2.389 1.127 0.929 1.419 0.277 -1.418 0.110 -0.373 0.163 0.643 -0.134 -1.784 0.570 -0.555 0.585 -0.503 0.133 0.825 -0.608 -1.038 0.529 -0.017 0.986 0.660 0.464 0.134 -0.744 -1.283 -1.074 0.707 -0.439 0.082 1.085 -0.529 -0.346 -0.244 1.068 -1.272 -0.600 -1.500 -0.167 -2.201 -0.560 -0.351 0.320 0.667 -0.419 0.760 0.972 -0.969 0.513 -0.820 -0.037 -0.415 0.527 1.097 -0.487 0.384 -0.907 -0.510 0.406 -1.114 1.615 3.141 0.076 -2.099 -0.237 1.096 1.015 -0.591 -0.620 -0.321 0.844 0.303 0.604 0.557 -1.073 0.383 -2.258 -0.624 0.183 -0.115 -0.564 1.066 0.663 -2.977 -0.890 -0.635 0.303 -0.311 0.906 -1.341 -0.671 -2.943 -0.337 1.662
décrochés -0.669 1.109 -1.607 1.086 2.003 0.422 -1.501 -0.942 0.484 0.038 0.092 1.536 1.439 1.187 0.499 -0.330 -1.667 0.266 -0.049 -1.836 0.646 -1.293 1.716 -1.398 -0.457 0.147 -0.860 -0.465 -0.171 -0.812 -0.547 -0.185 -1.241 1.514 -1.207 -0.054 0.980 1.055 -0.472 -1.134 -1.357 -0.528 -1.017 -0.577 0.128 -0.254 -0.178 -0.111 1.752 -0.078 -1.235 0.627 0.985 -0.133 -2.092 0.347 -1.303 0.945 -1.289 1.198 -0.120 0.061 0.043 -0.860 1.441 -0.263 1.013 -1.453 1.092 1.221 0.138 -0.566 1.495 -1.107 2.174 0.205 -0.538 -0.613 -1.092 -1.450 -0.788 1.163 0.695 -0.594 1.172 -0.116 -1.519 -0.018 -1.985 -1.271 0.668 -1.506 -0.718 -1.735 -0.085 0.676 0.032 0.796 -0.319 -0.034
près -0.684 -1.336 -0.942 0.756 1.030 -0.384 -1.434 -0.793 -0.609 -0.419 -0.730 -0.299 0.337 -0.898 1.379 -1.501 -0.066 1.984 -0.207 0.431 0.906 1.343 0.756 -0.371 0.278 0.486 2.087 0.218 1.052 0.353 1.354 -1.193 -1.422 -1.181 -0.950 0.029 -0.618 0.396 0.879 0.036 -0.089 0.870 -0.889 -0.092 1.961 -0.117 0.964 -0.353 3.496 -0.249 -1.073 0.873 0.940 -1.855 0.604 -0.492 0.014 0.790 0.041 -0.295 0.782 1.566 -0.160 0.429 -0.083 -0.189 -1.013 -0.192 -1.110 1.389 -0.788 -2.765 -0.277 0.658 1.766 -0.820 0.701 0.717 0.225 2.748 0.362 0.650 -0.042 0.361 -1.843 2.322 0.367 0.510 -0.915 -1.040 -0.536 0.153 -0.445 -1.915 0.877 0.753 0.105 -0.145 -0.115 0.312
apprêtait -0.918 1.227 0.474 0.092 0.395 0.859 -0.720 -0.196 -0.806 -0.159 1.363 -1.944 -0.652 -0.199 -0.339 0.143 -0.426 1.282 0.818 -2.008 -1.920 1.374 -1.058 0.154 0.210 -0.358 -0.069 0.109 -0.535 -0.938 1.097 0.058 -1.230 1.283 0.090 -0.503 -1.767 0.329 -0.557 -0.696 -0.462 2.129 -0.365 0.505 -0.961 -1.040 -2.178 1.524 0.933 -1.299 -0.732 2.016 -0.506 0.084 0.235 -0.661 0.414 -2.003 1.551 0.475 1.371 -0.386 1.022 2.032 0.096 0.173 0.630 0.460 1.085 -0.604 0.066 0.445 -0.890 0.153 0.211 1.454 0.822 -0.269 0.553 -1.044 -0.721 1.807 0.114 -0.146 1.069 0.738 1.643 -0.103 -1.377 -1.448 -0.548 -0.521 -0.441 -0.174 -0.142 -1.663 1.272 0.750 -0.884 -1.234
diriger -0.236 0.323 -0.912 -0.510 -1.351 -0.152 -1.160 -0.331 0.149 1.012 0.411 -1.151 -1.740 -0.159 0.937 -1.882 -0.526 -1.441 -1.940 1.068 -0.801 -0.304 -0.224 -0.379 1.377 0.901 1.076 1.239 1.880 -1.277 -0.534 0.083 0.664 0.805 -1.539 0.710 -0.327 0.764 1.020 1.120 0.100 -0.068 -0.723 -0.679 1.390 -1.218 -1.536 1.212 0.394 -0.147 0.119 0.593 0.115 -0.917 0.237 -1.370 1.051 -2.199 0.003 2.347 0.612 0.459 -0.696 -1.098 -0.284 0.209 1.502 2.271 0.597 -0.833 -0.668 1.609 0.094 -1.929 1.969 -1.200 0.581 0.388 -0.041 -0.282 0.396 1.168 0.791 0.676 -0.924 0.123 1.318 0.258 -1.099 -1.026 -0.762 1.200 -1.163 1.550 -2.234 1.597 1.280 -1.620 1.746 2.084
par 0.042 1.065 0.754 -1.393 0.727 0.744 1.133 0.387 -0.144 0.170 -1.224 -0.077 -0.367 0.040 0.282 -0.338 -0.712 -0.246 0.846 0.645 -1.379 1.140 0.865 -0.261 0.394 -0.954 -0.612 -0.050 -0.127 -1.365 -0.727 -0.346 1.040 0.046 0.343 0.569 0.042 -0.376 -0.587 -1.039 0.555 -1.344 -0.465 -0.459 -0.122 0.863 -0.608 0.356 2.067 0.672 -0.093 -0.235 -1.111 -1.415 -0.839 0.105 2.186 -0.262 -0.255 -0.030 0.944 0.355 -0.356 -0.227 -1.195 0.931 0.522 2.177 -0.071 0.280 0.288 0.587 0.435 0.429 0.298 -0.017 -2.140 -0.715 1.086 0.266 0.607 -1.524 -1.583 -1.300 0.068 0.788 -0.484 0.324 -1.581 -0.166 -0.266 -1.373 -0.900 -0.798 0.834 1.102 -0.296 0.410 -0.344 0.059
